/*
  AIfES: Configuration file automatically generated from AIfES-Converter
  https://github.com/Fraunhofer-IMS/AIfES-Converter

  Add this file to your IDE with the aifes_e_f32_fnn.h file

  Copyright (C) 2022  Fraunhofer Institute for Microelectronic Circuits and Systems.
  All rights reserved.
  AIfES-Converter is free software: you can redistribute it and/or modify
  it under the terms of the GNU Affero General Public License as published by
  the Free Software Foundation, either version 3 of the License, or
  (at your option) any later version.
  This program is distributed in the hope that it will be useful,
  but WITHOUT ANY WARRANTY; without even the implied warranty of
  MERCHANTABILITY or FITNESS FOR A PARTICULAR PURPOSE.  See the
  GNU Affero General Public License for more details.
  You should have received a copy of the GNU Affero General Public License
  along with this program.  If not, see <https://www.gnu.org/licenses/>.
*/
#ifndef AIFES_E_F32_WEIGHTS
#define AIFES_E_F32_WEIGHTS


const float aifes_e_f32_flat_weights[] = {0.05476197227835655f, 0.0478629507124424f, -0.04362243413925171f, -0.06436167657375336f, 0.012428537011146545f, 0.06828983128070831f, 
		0.050304703414440155f, 0.02450057491660118f, 0.05340920761227608f, -0.014988496899604797f, -0.03841381147503853f, 
		-0.035212527960538864f, -0.023407211527228355f, 0.0687352791428566f, -0.0553521066904068f, 0.015141560696065426f, 
		0.013215189799666405f, -0.04404864087700844f, -0.014498850330710411f, 0.06250859797000885f, 0.047765545547008514f, 
		-0.058088600635528564f, -0.03691651299595833f, -0.06924564391374588f, 0.01316065527498722f, -0.00238362280651927f, 
		-0.04568158835172653f, 0.015297220088541508f, -0.02854553796350956f, -0.03145010396838188f, -0.008774668909609318f, 
		0.01633235067129135f, -0.009081540629267693f, 0.0267531368881464f, 0.03851420059800148f, 0.04777373746037483f, 
		-0.016063548624515533f, 0.04566013440489769f, 0.038109660148620605f, -0.06418691575527191f, 0.007417647633701563f, 
		0.0012108238879591227f, 0.04541398212313652f, -0.0411190390586853f, -0.004902701824903488f, -0.06762947887182236f, 
		0.029425838962197304f, 0.010771069675683975f, -0.009413937106728554f, -0.0292531568557024f, -0.05020953342318535f, 
		0.010643289424479008f, -0.06982947885990143f, -0.011039081029593945f, 0.017218058928847313f, -0.013485887087881565f, 
		0.007908900268375874f, -0.048643045127391815f, -0.017558181658387184f, 0.060126833617687225f, 0.016911672428250313f, 
		-0.0635971799492836f, 0.038221485912799835f, -0.04918966814875603f, -0.02810540609061718f, -0.02813699282705784f, 
		-0.06912088394165039f, 0.057770341634750366f, 0.046380527317523956f, -0.017773980274796486f, 0.0014425436966121197f, 
		0.045287519693374634f, -0.007660605479031801f, 0.0558224655687809f, -0.02759648486971855f, 0.02301156520843506f, 
		0.006150395609438419f, -0.050315458327531815f, 0.012566676363348961f, -0.023535948246717453f, -0.03403446078300476f, 
		0.05045441910624504f, 0.03212781623005867f, 0.06210910156369209f, 0.030766500160098076f, 0.0512494221329689f, 
		-0.028509924188256264f, 0.02581825479865074f, -0.04003638029098511f, -0.004883245099335909f, 0.047465045005083084f, 
		0.01974041946232319f, 0.03358731418848038f, -0.01661909744143486f, 0.019849656149744987f, -0.004668802954256535f, 
		0.06250430643558502f, -0.005478475708514452f, 0.04549166187644005f, 0.034778617322444916f, 0.04781149700284004f, 
		0.05562305822968483f, -0.033318206667900085f, -0.031954701989889145f, -0.0025429395027458668f, -0.020394492894411087f, 
		0.004993070382624865f, 0.01153749693185091f, 0.0446067675948143f, 0.012344030663371086f, 0.012176144868135452f, 
		-0.05208880454301834f, -0.05974963679909706f, -0.036319345235824585f, -0.03458711504936218f, -0.01702188514173031f, 
		0.04193092882633209f, 0.0639079138636589f, 0.06089042127132416f, 0.06564323604106903f, 0.04928888380527496f, 
		-0.06728916615247726f, 0.013823248445987701f, 0.049552664160728455f, 0.026547221466898918f, 0.055610109120607376f, 
		-0.03777165710926056f, 0.06140299141407013f, 0.04872603341937065f, -0.016005296260118484f, -0.02232840284705162f, 
		0.013356953859329224f, 0.005009811371564865f, 0.0010261965217068791f, 0.06759986281394958f, 0.045494306832551956f, 
		0.06420360505580902f, 0.03197907656431198f, -0.021446138620376587f, -0.050895217806100845f, -0.030094094574451447f, 
		0.0021834555082023144f, -0.036542076617479324f, 0.041009027510881424f, -0.065658800303936f, 0.04758230596780777f, 
		-0.06620476394891739f, -0.010109566152095795f, -0.04238443449139595f, 0.0097433403134346f, 0.057483524084091187f, 
		0.03731648996472359f, 0.026317359879612923f, 0.06755205243825912f, 0.018358713015913963f, -0.0650438591837883f, 
		0.025237997993826866f, 0.045479416847229004f, 0.05452306941151619f, 0.05847279354929924f, 0.02347792126238346f, 
		0.03915803134441376f, -0.033599548041820526f, 0.05021025612950325f, 0.02999836951494217f, -0.007483001798391342f, 
		-0.04938814789056778f, -0.010365338996052742f, -0.011917615309357643f, 0.05421499162912369f, 0.025489483028650284f, 
		0.003555178875103593f, -0.022083228453993797f, 0.010380391962826252f, 0.035161666572093964f, -0.06236936151981354f, 
		0.05855930596590042f, -0.021609770134091377f, 0.026373429223895073f, 0.04121048003435135f, -0.051473066210746765f, 
		0.049429863691329956f, -0.004839563742280006f, -0.04712247848510742f, -0.04731632024049759f, -0.010990576818585396f, 
		0.05612998455762863f, 0.0481644943356514f, 0.02698388509452343f, 0.011102243326604366f, -0.013159610331058502f, 
		0.028142930939793587f, 0.00457367580384016f, 0.024003246799111366f, -0.007139485329389572f, 0.008164945989847183f, 
		0.018976258113980293f, -0.025743067264556885f, -0.038951244205236435f, -0.05712617561221123f, -0.007292271591722965f, 
		0.053122520446777344f, -0.05573020875453949f, -0.03834463655948639f, -0.057757604867219925f, -0.03128473833203316f, 
		-0.04126030579209328f, 0.00739357341080904f, 0.0533006489276886f, -0.06883036345243454f, 0.06675764173269272f, 
		-0.019930817186832428f, -0.01761459931731224f, -0.04383815452456474f, -0.048534393310546875f, -0.0002669877139851451f, 
		-0.06180989742279053f, 0.03855257108807564f, -0.04143977165222168f, 0.019594883546233177f, -0.06464812904596329f, 
		-0.031963251531124115f, -0.053751301020383835f, 0.03987882658839226f, 0.04923824965953827f, 0.015999482944607735f, 
		-0.04535800218582153f, -0.05030077323317528f, -0.01388438232243061f, 0.06877122819423676f, -0.07188434898853302f, 
		0.03165271505713463f, -0.03484424203634262f, -0.021802358329296112f, 0.05958288535475731f, 0.0488550178706646f, 
		0.053151968866586685f, -0.02768976241350174f, 0.06349378079175949f, -0.05201880633831024f, -0.0734354555606842f, 
		-0.03823868930339813f, -0.030432403087615967f, 0.04943471774458885f, -0.0038384865038096905f, -0.04395425319671631f, 
		-0.041777729988098145f, 0.030611684545874596f, 0.0706172063946724f, -0.038961123675107956f, 0.05748043209314346f, 
		-0.06582250446081161f, 0.06620907038450241f, -0.0441572330892086f, -0.06442826241254807f, -0.07008201628923416f, 
		0.043661583214998245f, -0.023891733959317207f, -0.02388177067041397f, -0.04427167773246765f, 0.002650622511282563f, 
		0.042028579860925674f, 0.042333777993917465f, -0.057989832013845444f, 0.06493277102708817f, -0.06630148738622665f, 
		0.04449906945228577f, 0.01595190539956093f, -0.038182586431503296f, 0.00027329925796948373f, -0.04139146953821182f, 
		0.03294529765844345f, 0.04825334623456001f, -0.018891576677560806f, 0.022661134600639343f, -0.05682443827390671f, 
		-0.0008766746614128351f, -0.010439058765769005f, -0.030926648527383804f, -0.031942419707775116f, 0.025857357308268547f, 
		-0.0026936426293104887f, -0.06041229888796806f, -0.02406228519976139f, -0.018694059923291206f, -0.064911849796772f, 
		0.008189101703464985f, 0.03143671527504921f, -0.06083880737423897f, 0.03544725850224495f, 0.03531709313392639f, 
		0.019733348861336708f, 0.058897245675325394f, -0.020891306921839714f, 0.06349851191043854f, 0.0671985000371933f, 
		0.016593195497989655f, 0.024225551635026932f, 0.013234278187155724f, 0.05017648637294769f, -0.014312367886304855f, 
		-0.0348440520465374f, -0.02953457646071911f, -0.005582640413194895f, 0.04833107814192772f, -0.042792901396751404f, 
		-0.05255196988582611f, 0.044239070266485214f, -0.01810303144156933f, -0.02712882310152054f, -0.04299987852573395f, 
		-0.03974277526140213f, -0.04595046117901802f, 0.055406421422958374f, 0.034386713057756424f, 0.038081150501966476f, 
		0.0489475354552269f, 0.024743590503931046f, -0.019159916788339615f, 0.05179489403963089f, -0.01577124185860157f, 
		-0.039059992879629135f, -0.04273074120283127f, -0.04658569395542145f, -0.06715916097164154f, 0.015437981113791466f, 
		-0.044360991567373276f, 0.05692725256085396f, 0.020403578877449036f, 0.021608978509902954f, -0.020588109269738197f, 
		0.03615017235279083f, 0.056781839579343796f, 0.01945073902606964f, -0.03276527300477028f, -0.011754359118640423f, 
		-0.05822576954960823f, 0.025965480133891106f, 0.05425142124295235f, -0.017878584563732147f, -0.040335942059755325f, 
		-0.02289976365864277f, 0.033473070710897446f, 0.03474285081028938f, -0.0016648485325276852f, -0.0008218834991566837f, 
		-0.01248558796942234f, 0.03847305849194527f, 0.026531441137194633f, -0.029566148295998573f, -0.05531712993979454f, 
		0.04405038431286812f, 0.022181836888194084f, 0.030728699639439583f, 0.04600180685520172f, 0.02470248192548752f, 
		0.02592913992702961f, -0.007486612536013126f, 0.06345234811306f, 0.06682981550693512f, 0.0061210026033222675f, 
		0.03219110891222954f, -0.06394460797309875f, -0.01213211752474308f, -0.005459207575768232f, 0.006031286437064409f, 
		0.0449121817946434f, -0.06012296676635742f, 0.027051471173763275f, 0.03984862193465233f, 0.04375031962990761f, 
		0.0519283302128315f, -0.01576276309788227f, -0.042498160153627396f, -0.058285318315029144f, -0.04639268293976784f, 
		-0.02058415859937668f, 0.036633845418691635f, 0.05494937673211098f, -0.052535079419612885f, -0.05907822772860527f, 
		-0.04106277599930763f, 0.01073610968887806f, -0.04519832134246826f, 0.01122667733579874f, -0.05308981239795685f, 
		-0.0010286307660862803f, 0.04667748138308525f, 0.024794697761535645f, 0.06530933827161789f, -0.058906521648168564f, 
		0.03590012341737747f, -0.000636336684692651f, -0.025317521765828133f, -0.04282928258180618f, 0.023259703069925308f, 
		-0.018361935392022133f, -0.026870647445321083f, -0.035966936498880386f, -0.04982937499880791f, 0.0495280958712101f, 
		0.006753666326403618f, 0.01568548008799553f, -0.03305225074291229f, 0.06586360186338425f, -0.04294426739215851f, 
		0.05964106693863869f, -0.006558929570019245f, 0.04429012909531593f, -0.019509918987751007f, -0.01093517616391182f, 
		0.038149330765008926f, -0.04745788127183914f, -0.013479284942150116f, 0.034186020493507385f, 0.037716541439294815f, 
		0.06596095860004425f, -0.028644993901252747f, -0.06647152453660965f, 0.00498294597491622f, -0.02115601673722267f, 
		-0.030095582827925682f, 0.02156476490199566f, -0.015671946108341217f, 0.038174085319042206f, -0.02041827328503132f, 
		0.06496820598840714f, 0.015746163204312325f, 0.003783619496971369f, -0.04005197808146477f, 0.0494060292840004f, 
		-0.028944797813892365f, 0.04630901664495468f, 0.05648113787174225f, -0.04594338685274124f, -0.003913859836757183f, 
		0.04484673961997032f, -0.013448887504637241f, -0.018152376636862755f, -0.06800251454114914f, 0.01950727216899395f, 
		0.01514282263815403f, -0.04850766062736511f, 0.053855981677770615f, 0.012033256702125072f, 0.012889892794191837f, 
		-0.013810651376843452f, -0.03288901224732399f, 0.008755182847380638f, 0.00917868223041296f, 0.05743374302983284f, 
		-0.011219953186810017f, 0.019162962213158607f, 0.0211394801735878f, -0.06109030172228813f, -0.004779468290507793f, 
		-0.018281763419508934f, -0.06213784217834473f, -0.017226995900273323f, -0.05137975141406059f, -0.053561121225357056f, 
		-0.016547929495573044f, -0.0031737564131617546f, -0.04097875952720642f, 0.00829411018639803f, -0.07083622366189957f, 
		0.031845033168792725f, -0.045627955347299576f, -0.052489522844552994f, -0.014569531194865704f, 0.05410030484199524f, 
		0.05878644064068794f, 0.06674381345510483f, -0.02750159054994583f, -0.005191831849515438f, 0.05273254215717316f, 
		0.06337732076644897f, -0.025142891332507133f, -0.03285474330186844f, 0.010271549224853516f, 0.05190068483352661f, 
		0.01908690854907036f, 0.05089869350194931f, 0.0006051045493222773f, -0.02429860644042492f, 0.02955680899322033f, 
		-0.03557426109910011f, 0.06540057063102722f, -0.05815722793340683f, -0.03955955058336258f, -0.00311099411919713f, 
		-0.047872912138700485f, 0.011469671502709389f, -0.009582985192537308f, -0.015094847418367863f, 0.056230731308460236f, 
		0.03664405643939972f, 0.01980321854352951f, 0.020148413255810738f, -0.05051051080226898f, 0.03563552722334862f, 
		0.05911588668823242f, 0.05964916944503784f, -0.029524408280849457f, -0.03711630403995514f, -0.02974121645092964f, 
		-0.04736274853348732f, 0.006364450789988041f, 0.06850695610046387f, 0.024216970428824425f, -0.004436806309968233f, 
		-0.048182643949985504f, -0.018299147486686707f, 0.06779124587774277f, -0.0672043040394783f, 0.05821868032217026f, 
		-0.04302724078297615f, -0.06320556253194809f, -0.06055518239736557f, 0.06449071317911148f, -0.05069213733077049f, 
		0.03480008244514465f, -0.05380852892994881f, -0.026698891073465347f, -0.06099570542573929f, -0.06670288741588593f, 
		-0.06679762154817581f, 0.05384133756160736f, -0.059837982058525085f, -0.06674235314130783f, -0.01905602216720581f, 
		-0.06680852919816971f, 0.04604363813996315f, 0.012319626286625862f, -0.0588795430958271f, -0.030952563509345055f, 
		-0.00733414851129055f, -0.06497437506914139f, 0.01668468862771988f, 0.059139177203178406f, -0.027259957045316696f, 
		-0.019845200702548027f, 0.05108585208654404f, -0.011949043720960617f, -0.00853035319596529f, 0.020954908803105354f, 
		-0.06091386079788208f, -0.002757508074864745f, -0.06378071010112762f, -0.01781044527888298f, -0.039749033749103546f, 
		-0.00448535056784749f, 0.0030301720835268497f, -0.03763745725154877f, 0.050465598702430725f, 0.05630764365196228f, 
		0.013726000674068928f, -0.027086181566119194f, -0.058466896414756775f, -0.005321172531694174f, 0.01597280614078045f, 
		0.06657714396715164f, -0.05192876234650612f, 0.03200529143214226f, -0.028626715764403343f, 0.03219686076045036f, 
		-0.020448340103030205f, -0.06258280575275421f, 0.01961183175444603f, -0.027238428592681885f, 0.02956545166671276f, 
		-0.06539414823055267f, 0.022779515013098717f, -0.0387173630297184f, -0.05596325546503067f, -0.01825852505862713f, 
		0.04020122066140175f, 0.00753276702016592f, 0.04241001233458519f, 0.013009787537157536f, 0.049410659819841385f, 
		0.04889856278896332f, 0.04158979281783104f, 0.008542664349079132f, -0.04028739407658577f, 0.06345286220312119f, 
		-0.004872554913163185f, -0.043914660811424255f, 0.053861938416957855f, 0.06699135154485703f, -0.0014214777620509267f, 
		0.062412846833467484f, -0.0647963434457779f, 0.028435027226805687f, 0.02948547713458538f, 0.016963133588433266f, 
		-0.06967991590499878f, -0.06104088947176933f, 0.005283173639327288f, -0.06146484613418579f, -0.030485495924949646f, 
		0.009490106254816055f, 0.019170543178915977f, 0.03920998424291611f, -0.07017707824707031f, 0.02436758577823639f, 
		0.00175222079269588f, -0.004666538909077644f, -0.003702243324369192f, -0.035761069506406784f, 0.05382092297077179f, 
		-0.059935376048088074f, -0.06743532419204712f, -0.007089477498084307f, 0.03188573941588402f, 0.025312060490250587f, 
		-0.04396649822592735f, -0.00240330770611763f, -0.05923202261328697f, 0.033579498529434204f, -0.03728337958455086f, 
		0.03804028034210205f, -0.03358538821339607f, -0.018008191138505936f, -0.008922498673200607f, -0.07096895575523376f, 
		0.054200608283281326f, 0.01407253835350275f, -0.018552936613559723f, -0.0037903799675405025f, -0.01931149885058403f, 
		0.03219106048345566f, 0.00804049987345934f, -0.023077234625816345f, -0.009844418615102768f, 0.05728333070874214f, 
		0.05392156541347504f, -0.045466840267181396f, -0.04158488288521767f, -0.0010521437507122755f, -0.034787606447935104f, 
		-0.0628705769777298f, -0.05286117270588875f, 0.011735678650438786f, -0.032700903713703156f, 0.07064764946699142f, 
		0.02198675274848938f, -0.06745899468660355f, 0.044551316648721695f, -0.04340177774429321f, -0.06847482174634933f, 
		-0.014612655155360699f, 0.04335681349039078f, 0.050207000225782394f, -0.05973561108112335f, -0.03935724124312401f, 
		-0.06988584995269775f, 0.05499786511063576f, -0.03389476239681244f, -0.029528995975852013f, -0.04536644369363785f, 
		-0.005995812825858593f, -0.0021191537380218506f, 0.0026039318181574345f, -0.04814666509628296f, -0.03908868134021759f, 
		0.07146690040826797f, 0.034879520535469055f, 0.05260791257023811f, 0.03346643224358559f, 0.029250528663396835f, 
		0.0066243852488696575f, -0.04123475402593613f, -0.06031111255288124f, 0.012197130359709263f, 0.030969565734267235f, 
		-0.0532546304166317f, -0.03215333819389343f, -0.058958083391189575f, -0.06828290224075317f, -0.021313926205039024f, 
		-0.05560297146439552f, 0.0699661448597908f, 0.012857522815465927f, 0.024806085973978043f, -0.019941749051213264f, 
		0.023530451580882072f, -0.013679719530045986f, -0.06610894203186035f, -0.007281157653778791f, 0.0511847659945488f, 
		0.029445312917232513f, -0.034228481352329254f, 0.06312155723571777f, 0.0039955321699380875f, -0.0060471282340586185f, 
		0.05120164155960083f, -0.057626985013484955f, 0.04080049321055412f, 0.0021848755422979593f, -0.034495603293180466f, 
		-0.011666853912174702f, 0.01727643981575966f, 0.04402799531817436f, 0.03187054768204689f, -0.055772583931684494f, 
		0.05150040611624718f, -0.023130184039473534f, 0.047727715224027634f, 0.061837971210479736f, -0.031079234555363655f, 
		0.020036235451698303f, 0.02663210779428482f, -0.05677563324570656f, 0.043480027467012405f, -0.002131288405507803f, 
		-0.00523143308237195f, -0.024937355890870094f, -0.04682425037026405f, 0.05300154909491539f, -0.05029253289103508f, 
		0.025062335655093193f, 0.06669139862060547f, -0.04177001491189003f, 0.030608486384153366f, -0.0031101901549845934f, 
		-0.025539545342326164f, 0.008532742969691753f, -0.014252598397433758f, -0.05338035523891449f, -0.0631491169333458f, 
		0.04254482686519623f, 0.004226014018058777f, -0.0065911454148590565f, -0.003446524264290929f, -0.05509068816900253f, 
		-0.056252531707286835f, -0.04818596690893173f, 0.017921600490808487f, 0.05198189616203308f, 0.041503243148326874f, 
		0.044841889292001724f, 0.009822282940149307f, 0.035273052752017975f, 0.008002152666449547f, 0.014026673510670662f, 
		-0.03379228711128235f, 0.019208010286092758f, 0.029691601172089577f, -0.03977193683385849f, -0.04577577859163284f, 
		0.0412571057677269f, 0.039386019110679626f, -0.030845873057842255f, -0.05089758336544037f, -0.038656085729599f, 
		0.02107887901365757f, 0.028324125334620476f, -0.022738412022590637f, -0.05375083535909653f, -0.057652898132801056f, 
		0.006434926763176918f, -0.03363350033760071f, 0.05070643126964569f, -0.027080634608864784f, -0.0037361602298915386f, 
		-0.055490124970674515f, -0.057307373732328415f, -0.07862283289432526f, 0.0010773389367386699f, 0.042580630630254745f, 
		-0.04248015582561493f, 0.028540797531604767f, -0.053660232573747635f, 0.06208579242229462f, 0.005652908701449633f, 
		0.016932522878050804f, 0.04298296570777893f, 0.010012316517531872f, -0.0471293143928051f, -0.03118615224957466f, 
		-0.0005522411083802581f, -0.06935865432024002f, -0.012497388757765293f, 0.013823802582919598f, -0.05648890882730484f, 
		0.0012792851775884628f, 0.008764132857322693f, 0.021343335509300232f, 0.015864616259932518f, 0.04276609420776367f, 
		-0.040081147104501724f, -0.024234239012002945f, 0.0260953139513731f, 0.0070486655458807945f, -0.0029570923652499914f, 
		-0.014486716128885746f, 0.03063216246664524f, 0.04613158851861954f, 0.05708138272166252f, 0.05653569847345352f, 
		-0.00853645708411932f, 0.01908009685575962f, 0.05553849786520004f, 0.0074952030554413795f, 0.01935853250324726f, 
		-0.04887676239013672f, -0.056017957627773285f, -0.024457931518554688f, 0.06134523078799248f, 0.038698308169841766f, 
		-0.07154480367898941f, 0.06424428522586823f, 0.0033100140281021595f, 0.038645993918180466f, 0.04994446784257889f, 
		0.010837399400770664f, -0.009579511359333992f, -0.039307910948991776f, -0.049910686910152435f, -0.019242342561483383f, 
		-0.02489105425775051f, 0.04850819706916809f, 0.05999574437737465f, 0.009872823022305965f, -0.016188662499189377f, 
		-0.07029037922620773f, -0.0559445358812809f, 0.0672963410615921f, -0.03985471650958061f, -0.007461890112608671f, 
		-0.06420554220676422f, 0.047246504575014114f, -0.009435439482331276f, -0.005247431341558695f, 0.02745368890464306f, 
		0.02149784006178379f, -0.06519950181245804f, -0.01865367218852043f, 0.06889396905899048f, -0.04662976786494255f, 
		-0.022531209513545036f, -0.06900253146886826f, -0.022690139710903168f, 0.03331100195646286f, 0.024096034467220306f, 
		-0.028749527409672737f, -0.04905543103814125f, -0.0372200682759285f, -0.02543482929468155f, -0.05838649347424507f, 
		-0.03959048166871071f, 0.04192453995347023f, 0.03763730078935623f, 0.04321892186999321f, 0.01000039093196392f, 
		-0.00924462266266346f, -0.035520777106285095f, 0.03113327920436859f, 0.02729754149913788f, -0.017785511910915375f, 
		-0.04684445634484291f, -0.054918043315410614f, -0.020670192316174507f, 0.05120714008808136f, 0.05603974685072899f, 
		0.042115867137908936f, -0.031661659479141235f, 0.04504254832863808f, 0.0032051235903054476f, 0.0096143102273345f, 
		0.011223298497498035f, 0.029734615236520767f, 0.030250441282987595f, 0.04975467920303345f, -0.0014648614451289177f, 
		0.013694093562662601f, 0.020539794117212296f, -0.05039312690496445f, -0.008637769147753716f, -0.02507071942090988f, 
		-0.01138102263212204f, -0.015090561471879482f, -0.03840779513120651f, 0.04449710622429848f, -0.013452540151774883f, 
		-0.04977558180689812f, -0.06029370799660683f, -0.048576198518276215f, -0.046051640063524246f, 0.01101575419306755f, 
		0.017686933279037476f, 0.009264771826565266f, 0.042833197861909866f, -0.02553401328623295f, 0.035394590348005295f, 
		0.054639071226119995f, 0.007301720790565014f, 0.059520043432712555f, 0.047308582812547684f, -0.007127030286937952f, 
		0.015392963774502277f, -0.06289205700159073f, 0.06540896743535995f, -0.04767323285341263f, 0.025505946949124336f, 
		-0.019548723474144936f, 0.030564110726118088f, -0.005914671346545219f, -0.02625015191733837f, 0.06506595015525818f, 
		0.05225579813122749f, -0.01632135733962059f, 0.018909532576799393f, 0.03245146572589874f, 0.049471911042928696f, 
		-0.006212208885699511f, -0.004208208993077278f, -0.005498751997947693f, -0.05984807759523392f, -0.0032654032111167908f, 
		-0.03095691278576851f, 0.07238087058067322f, -0.008466189727187157f, -0.04295121505856514f, -0.03925129026174545f, 
		0.048071619123220444f, 0.027683252468705177f, -0.021345138549804688f, 0.05715988576412201f, -0.03709238022565842f, 
		0.0007204122957773507f, -0.06204023212194443f, 0.029817383736371994f, 0.016228515654802322f, 0.024615371599793434f, 
		0.0586480051279068f, -0.0010580922244116664f, 0.03468535840511322f, -0.007404543925076723f, 0.023791197687387466f, 
		0.06799023598432541f, -0.053886979818344116f, 0.058837272226810455f, 0.019895702600479126f, -0.06155405938625336f, 
		-0.06896432489156723f, 0.03784026950597763f, -0.028880158439278603f, 0.026140473783016205f, -0.02108060196042061f, 
		-0.07308156788349152f, -0.06612928211688995f, 0.06411774456501007f, -0.023493073880672455f, 0.007524284068495035f, 
		0.0014984691515564919f, 0.030405720695853233f, -0.02097654715180397f, 0.013198883272707462f, -0.007547443732619286f, 
		0.0056633963249623775f, -0.012987975962460041f, -0.07078221440315247f, 0.052596788853406906f, -0.06180371344089508f, 
		-0.0006344827124848962f, -0.06118903309106827f, -0.01091410219669342f, 0.059565573930740356f, -0.03361573815345764f, 
		0.005452048499137163f, 0.06441529840230942f, -0.05056963115930557f, 0.0625007376074791f, -0.054328858852386475f, 
		0.04087409749627113f, 0.035440925508737564f, 0.06271432340145111f, -0.04352153092622757f, -0.008831743150949478f, 
		-0.0127762695774436f, 0.022540930658578873f, -0.061465438455343246f, -0.06860052794218063f, 0.008012864738702774f, 
		0.03391131013631821f, 0.05216090381145477f, 0.01609203591942787f, -0.03654153272509575f, -0.06645068526268005f, 
		-0.0023758504539728165f, 0.033408306539058685f, 0.07060900330543518f, -0.003888170700520277f, 0.06595997512340546f, 
		-0.06814340502023697f, 0.038089439272880554f, 0.06524127721786499f, 0.048621006309986115f, -0.040774572640657425f, 
		0.03742418438196182f, 0.05861244350671768f, -0.04894118756055832f, 0.011869384907186031f, -0.05992567911744118f, 
		0.03243466466665268f, 0.05726535618305206f, -0.02688877284526825f, -0.05589507892727852f, -0.05224255099892616f, 
		0.05123225599527359f, -0.0662517324090004f, 0.0012895736144855618f, -0.04203689098358154f, 0.05712692812085152f, 
		0.0661025121808052f, 0.03694383054971695f, -0.06942083686590195f, -0.06640418618917465f, 0.061900440603494644f, 
		-0.033044733107089996f, -0.0150692043825984f, -0.03919451683759689f, -0.04421517997980118f, 0.01590408943593502f, 
		0.030541514977812767f, 0.0018397129606455564f, -0.06513100862503052f, -0.042498815804719925f, -0.04437054321169853f, 
		-0.0460001677274704f, -0.06757529079914093f, 0.015272288583219051f, 0.033313531428575516f, -0.03532950580120087f, 
		-0.05714058503508568f, -0.036628518253564835f, -0.035144105553627014f, 0.00497395871207118f, 0.004782076459378004f, 
		0.03790118917822838f, 0.02189246006309986f, 0.022280048578977585f, -0.01950901560485363f, 0.03162466734647751f, 
		-0.014052877202630043f, -0.051583778113126755f, -0.004226259421557188f, 0.06568413972854614f, 0.021011659875512123f, 
		-0.019686298444867134f, 0.02157621458172798f, -0.06987006217241287f, -0.05421466752886772f, -0.04662138223648071f, 
		-0.032205287367105484f, -0.006059775594621897f, -0.008712203241884708f, -0.05237702280282974f, -0.0024764856789261103f, 
		0.04630419984459877f, -0.06617274135351181f, -0.018280772492289543f, -0.021964145824313164f, 0.055130764842033386f, 
		0.0494590699672699f, -0.004284800495952368f, -0.0550944060087204f, 0.06793566793203354f, -0.06594666093587875f, 
		-0.020068123936653137f, 0.06391938775777817f, 0.00656712194904685f, 0.0016028056852519512f, 0.04422549158334732f, 
		0.026461387053132057f, 0.010446508415043354f, 0.0009490371448919177f, 0.02210882119834423f, 0.06121818721294403f, 
		0.06296352297067642f, -0.00023051886819303036f, -0.03254261240363121f, -0.06383787095546722f, -0.058974217623472214f, 
		-0.04102734103798866f, 0.04183541610836983f, 0.03275672346353531f, 0.005231701303273439f, -0.06937048584222794f, 
		-0.02853253297507763f, -0.01384945958852768f, 0.011892799288034439f, -0.05138701573014259f, 0.019315065816044807f, 
		0.05898505449295044f, 0.025728000327944756f, -0.06605619937181473f, -0.0435771644115448f, -0.06031319871544838f, 
		0.034094713628292084f, 0.055451832711696625f, -0.005918947514146566f, -0.033974163234233856f, 0.04275434464216232f, 
		0.011660254560410976f, 0.014677449129521847f, -0.05852656066417694f, -0.01414911262691021f, -0.055689867585897446f, 
		0.01815302111208439f, 0.035492658615112305f, -0.0021148950327187777f, -0.05244026333093643f, 0.0070572602562606335f, 
		-0.03695731237530708f, -0.027026407420635223f, 0.0575050413608551f, -0.02781689539551735f, -0.0071942443028092384f, 
		-0.03920970857143402f, 0.01932387985289097f, -0.016326159238815308f, -0.020369896665215492f, -0.02396335080265999f, 
		-0.060691364109516144f, 0.05375201627612114f, -0.010692251846194267f, 0.010985554195940495f, -0.016353387385606766f, 
		0.02349248342216015f, 0.024947620928287506f, -0.03474605828523636f, -0.03509220480918884f, -0.07017915695905685f, 
		0.02702447772026062f, -0.025696268305182457f, -0.013900049030780792f, -0.02231873944401741f, 0.06471522152423859f, 
		-0.05759837478399277f, 0.04597565904259682f, 0.032621096819639206f, 0.034912291914224625f, 0.030326854437589645f, 
		-0.026530111208558083f, -0.017440615221858025f, -0.011194207705557346f, 0.024227332323789597f, -0.00041952801984734833f, 
		0.056973058730363846f, 0.04997219890356064f, 0.04041297361254692f, 0.014563311822712421f, 0.030048837885260582f, 
		0.027407988905906677f, 0.04592321440577507f, 0.055640991777181625f, -0.026589836925268173f, 0.026660116389393806f, 
		-0.05938618257641792f, 0.058236878365278244f, -0.012793117202818394f, 0.056474536657333374f, -0.06955207139253616f, 
		-0.004018816631287336f, 0.035940054804086685f, 0.02664538100361824f, -0.051150090992450714f, 0.03432473540306091f, 
		-0.019297556951642036f, 0.059220053255558014f, 0.002415674040094018f, -0.002445500111207366f, -0.02335420809686184f, 
		-0.0697404146194458f, 0.0071358270943164825f, -0.014729705639183521f, -0.06460632383823395f, 0.004485383164137602f, 
		-0.05172271654009819f, -0.025376087054610252f, 0.013890177011489868f, 0.05760456249117851f, 0.04407120496034622f, 
		0.05094914883375168f, 0.05158713459968567f, 0.05247955396771431f, -0.017196867614984512f, 0.008651845157146454f, 
		-0.05813940241932869f, -0.03691203519701958f, 0.05283296853303909f, -0.0507974773645401f, -0.04736095666885376f, 
		0.03308463469147682f, -0.027041872963309288f, -0.0554291233420372f, -0.06514889001846313f, -0.014391462318599224f, 
		-0.002018142957240343f, 0.03789759427309036f, -0.061781298369169235f, -0.02708730474114418f, 0.04318657144904137f, 
		-0.02455751784145832f, 0.023883182555437088f, 0.025259343907237053f, -0.041700948029756546f, -0.058687303215265274f, 
		-0.024282298982143402f, 0.010669332928955555f, 0.012826165184378624f, 0.04714486375451088f, 0.04600400850176811f, 
		-0.0114690400660038f, -0.06778005510568619f, -0.05760777369141579f, -0.026312168687582016f, 0.009831114672124386f, 
		0.05533776432275772f, -0.01481150183826685f, 0.04900403693318367f, 0.03260112926363945f, 0.04104283079504967f, 
		0.056534215807914734f, 0.014403222128748894f, 0.018143368884921074f, -0.052790749818086624f, -0.056593697518110275f, 
		-0.039773229509592056f, 0.028388293460011482f, 0.030233414843678474f, -0.001696219900622964f, -0.05738144367933273f, 
		0.005262050312012434f, -0.0036588653456419706f, 0.06810037791728973f, -0.04373738542199135f, 0.010922657325863838f, 
		0.03672586381435394f, -0.04697231203317642f, 0.06475519388914108f, 0.060099389404058456f, 0.050591446459293365f, 
		-0.007716691121459007f, 0.06763040274381638f, -0.04276295378804207f, -0.03831714764237404f, -0.02913825400173664f, 
		-0.012144580483436584f, 0.0220336876809597f, 0.04659825935959816f, 0.024823686107993126f, 0.03466036915779114f, 
		-0.04987180233001709f, 0.00017584467423148453f, -0.06079603731632233f, -0.01845480129122734f, 0.04445872828364372f, 
		-0.04214971885085106f, 0.0073792231269180775f, 0.015716150403022766f, 0.006349672097712755f, -0.026760807260870934f, 
		0.02966516651213169f, 0.0030986187048256397f, 0.014777565374970436f, -0.008476478978991508f, 0.062047865241765976f, 
		0.023921558633446693f, -0.02985241450369358f, -0.031291451305150986f, -0.06795655936002731f, -0.054763063788414f, 
		0.026467643678188324f, -0.0048738811165094376f, 0.004760299809277058f, -0.037223950028419495f, -0.02702098898589611f, 
		-0.024567218497395515f, -0.010968904942274094f, 0.041291579604148865f, -0.02343127690255642f, 0.04189709573984146f, 
		0.04508408159017563f, -0.06418122351169586f, 0.0584157332777977f, 0.02555319108068943f, -0.04984230920672417f, 
		0.04970052093267441f, -0.017394276335835457f, -0.02711951546370983f, -0.01813197135925293f, -0.03718256205320358f, 
		-0.03801244869828224f, -0.0298929400742054f, -0.0015361758414655924f, -0.05804139003157616f, -0.05049990117549896f, 
		0.04823178052902222f, 0.06075078994035721f, 0.024821272119879723f, 0.055991388857364655f, -0.061985790729522705f, 
		0.040610846132040024f, -0.01613476127386093f, -0.031185388565063477f, -0.041526615619659424f, -0.013299157842993736f, 
		0.06433136016130447f, 0.053227514028549194f, 0.02841922454535961f, -0.016328366473317146f, -0.060472577810287476f, 
		0.03805198147892952f, -0.06603133678436279f, -0.013886459171772003f, 0.02140481397509575f, 0.06407248973846436f, 
		-0.07037191838026047f, 0.05243857949972153f, -0.02662976086139679f, 0.04697616025805473f, -0.049266211688518524f, 
		0.05221109837293625f, 0.05212264135479927f, -0.05957229062914848f, -0.04395342990756035f, -0.03753108158707619f, 
		0.06524185836315155f, 0.05316906422376633f, 0.07109864801168442f, -0.010864670388400555f, -0.011642295867204666f, 
		-0.01421354804188013f, -0.0068602245301008224f, 0.06363293528556824f, 0.0277324840426445f, -0.04618653655052185f, 
		-0.054812949150800705f, 0.05154299736022949f, -0.04522949829697609f, -0.029119575396180153f, -0.03625866398215294f, 
		0.07131749391555786f, 0.057186469435691833f, 0.0032662947196513414f, -0.05048039183020592f, 0.038694411516189575f, 
		-0.013529039919376373f, 0.04409293085336685f, 0.022920547053217888f, -0.007531553041189909f, 0.03405315428972244f, 
		0.007681497372686863f, -0.024896791204810143f, -0.049367912113666534f, -0.01735394075512886f, -0.021261125802993774f, 
		-0.05560309439897537f, 0.015789881348609924f, -0.024830764159560204f, 0.039970457553863525f, -0.052121952176094055f, 
		-0.015236766077578068f, 0.006046250928193331f, 0.037463512271642685f, 0.03345091640949249f, -0.055096860975027084f, 
		0.03465721383690834f, 0.04744875803589821f, -0.010357477702200413f, 0.0019774362444877625f, 0.010046963579952717f, 
		-0.01722363755106926f, -0.04923327639698982f, 0.021815581247210503f, 0.04524126276373863f, 0.010628611780703068f, 
		0.035960230976343155f, -0.02356071211397648f, -0.04160359874367714f, -0.016558798030018806f, -0.023789286613464355f, 
		-0.04275519400835037f, -0.05285104736685753f, -0.05309543013572693f, 0.03709576278924942f, -0.05396726354956627f, 
		-0.019980749115347862f, 0.01037778239697218f, -0.046795886009931564f, 0.0012423127191141248f, 0.03391151502728462f, 
		-0.06407373398542404f, -0.012153913266956806f, -0.018236227333545685f, -0.0026643271557986736f, -0.05157145485281944f, 
		-0.04766121506690979f, 0.0024020294658839703f, 0.0558377280831337f, -0.012983247637748718f, 0.02461707405745983f, 
		-0.03696966916322708f, 0.039091575890779495f, -0.057540953159332275f, -0.021509073674678802f, -0.005355757661163807f, 
		0.06869638711214066f, -0.035395778715610504f, 0.04281408339738846f, -0.0064416006207466125f, 0.008711088448762894f, 
		-0.01646040752530098f, 0.05312409996986389f, 0.003030748339369893f, -0.03978050500154495f, 0.06404981017112732f, 
		0.02122577838599682f, 0.05893152207136154f, -0.018164198845624924f, -0.038017354905605316f, 0.03996584564447403f, 
		0.05474945157766342f, 0.027567293494939804f, -0.012841989286243916f, 0.0034663432743400335f, 0.005146499257534742f, 
		-0.03094780072569847f, -0.02779795415699482f, 0.0071786316111683846f, -0.03905617445707321f, 0.03734610974788666f, 
		-0.013642403297126293f, -0.03783563897013664f, -0.007737964391708374f, 0.04180021956562996f, -0.02146204374730587f, 
		0.0663822665810585f, -0.02212574891746044f, 0.05907590687274933f, -0.008138755336403847f, 0.0009091818938031793f, 
		-0.06754355132579803f, -0.023825129494071007f, 0.022107739001512527f, -0.038482893258333206f, -0.0369270034134388f, 
		0.02335534244775772f, -0.051012564450502396f, 0.06390633434057236f, -0.009375683031976223f, -0.04480262100696564f, 
		0.053631741553545f, 0.0057239774614572525f, 0.010729080066084862f, -0.04776649922132492f, -0.0660279169678688f, 
		0.016038166359066963f, -0.03717240318655968f, -0.06179340183734894f, 0.05722615867853165f, 0.0403333455324173f, 
		-0.0022266118321567774f, 0.00836453028023243f, 0.06261035054922104f, -0.0060059791430830956f, -0.06507132202386856f, 
		-0.04246792197227478f, 0.04280383884906769f, -0.0607052706182003f, -0.03142787888646126f, 0.01600003056228161f, 
		-0.07016539573669434f, 0.04717857018113136f, -0.06588921695947647f, -0.06309277564287186f, -0.019160259515047073f, 
		0.032785337418317795f, 0.03580902889370918f, 0.006282385438680649f, 0.05145809426903725f, -0.03347967565059662f, 
		0.06207682564854622f, 0.012997372075915337f, -0.03946209326386452f, -0.004308269824832678f, 0.03359450399875641f, 
		-0.04061053320765495f, -0.05863942205905914f, -0.041384726762771606f, 0.011785623617470264f, -0.012538298964500427f, 
		0.057499080896377563f, 0.018241960555315018f, -0.0030718541238456964f, 0.002069389447569847f, 0.016738127917051315f, 
		-0.06816267222166061f, 0.014951045624911785f, -0.00326019455678761f, 0.01966664381325245f, -0.0466173030436039f, 
		-0.047944847494363785f, 0.06108906492590904f, 0.045705124735832214f, -0.0641055703163147f, 0.05079003795981407f, 
		-0.007688252255320549f, 0.02805551514029503f, 0.04379447549581528f, 0.00995149277150631f, 0.056970711797475815f, 
		0.03236255794763565f, 0.06404165178537369f, -0.020680394023656845f, -0.06328810006380081f, 0.04544198140501976f, 
		-0.015634797513484955f, 5.939444599789567e-05f, 0.0278119295835495f, -0.043581392616033554f, 0.040892861783504486f, 
		0.061643846333026886f, -0.02073337323963642f, -0.07112518697977066f, -0.016765132546424866f, 0.017820533365011215f, 
		0.06650111824274063f, 0.009955053217709064f, -0.006763666868209839f, 0.007526700384914875f, -0.057481590658426285f, 
		-0.01059920247644186f, -0.05296177789568901f, 0.061511144042015076f, -0.007839796133339405f, -0.025576408952474594f, 
		-0.06744866073131561f, 0.0203490499407053f, -0.023119650781154633f, 0.05564472824335098f, 0.002920024562627077f, 
		-0.03765533119440079f, 0.018967648968100548f, -0.07327461242675781f, -0.01123169157654047f, -0.04662952199578285f, 
		-0.0012214836897328496f, 0.003203172469511628f, -0.04962550848722458f, -0.03516945615410805f, -0.02559109777212143f, 
		0.015787214040756226f, 0.04729488492012024f, -0.07009528577327728f, 0.059355463832616806f, -0.053290560841560364f, 
		-0.035220514982938766f, 0.05844932422041893f, -0.06147507205605507f, -0.05009271204471588f, 0.03261987492442131f, 
		0.04788566753268242f, 0.0639018788933754f, -0.07062957435846329f, 0.01854824647307396f, -0.062131304293870926f, 
		-0.003483713138848543f, -0.003606201848015189f, -0.0658629983663559f, 0.030567321926355362f, 0.027457408607006073f, 
		0.04885701462626457f, -0.001922712312079966f, -0.023417865857481956f, 0.006901679560542107f, 0.01042456366121769f, 
		-0.012164055369794369f, 0.015380566008388996f, 0.05160252004861832f, 0.04934318736195564f, 0.052000246942043304f, 
		-0.02385338582098484f, -0.055884186178445816f, -0.01992330141365528f, -0.044568706303834915f, 0.01882985047996044f, 
		0.001304773846641183f, 0.028260862454771996f, 0.03915375843644142f, 0.042469900101423264f, -0.05658593401312828f, 
		-0.00015372228517662734f, 0.013331831432878971f, 0.017007337883114815f, 0.03035592846572399f, -0.07190689444541931f, 
		0.018718594685196877f, -0.00281652994453907f, 0.009666765108704567f, 0.01230629626661539f, 0.06126672402024269f, 
		-0.02066643163561821f, 0.04396777227520943f, 0.03647720068693161f, -0.05872274935245514f, -0.013756883330643177f, 
		-0.038691446185112f, 0.059569668024778366f, 0.06820277124643326f, -0.052691347897052765f, 0.003940395079553127f, 
		0.0032580739352852106f, 0.0300406776368618f, -0.012884875759482384f, 0.04323110356926918f, 0.015141391195356846f, 
		-0.06040496751666069f, 0.0337970033288002f, -0.015695055946707726f, 0.021270977333188057f, -0.05965575948357582f, 
		0.06810250878334045f, 0.0596337616443634f, 0.06021115183830261f, 0.03122515231370926f, 0.00693697901442647f, 
		0.04329683631658554f, -0.005262026563286781f, 0.03479120135307312f, 0.028372393921017647f, 0.0260503888130188f, 
		0.05473610758781433f, -0.006405041087418795f, 0.04126483201980591f, -0.049600228667259216f, -0.056200966238975525f, 
		0.009528148919343948f, -0.04156465455889702f, 0.06452198326587677f, -0.04430230334401131f, -0.0011225966736674309f, 
		0.05292068049311638f, -0.04313278943300247f, 0.04626896232366562f, 0.002108763437718153f, -0.0691218450665474f, 
		-0.020939944311976433f, -0.030325524508953094f, 0.030593985691666603f, -0.030384797602891922f, -0.019336096942424774f, 
		-0.06075320765376091f, 0.04450986161828041f, -0.047308433800935745f, 0.04729968681931496f, -0.05905263125896454f, 
		-0.06537576764822006f, 0.02254791371524334f, -0.03714597225189209f, 0.03037034347653389f, -0.03271278738975525f, 
		0.06950373947620392f, -0.051154013723134995f, 0.0045558735728263855f, -0.0047581978142261505f, 0.04468688368797302f, 
		0.03903783857822418f, -0.03128853812813759f, -0.021071335300803185f, 0.05569568648934364f, 0.027573268860578537f, 
		0.02284989319741726f, -0.010802472941577435f, 0.004490208812057972f, 0.05790148302912712f, 0.025569500401616096f, 
		-0.07215084880590439f, 0.03260050714015961f, 0.0077298167161643505f, -0.0042983610183000565f, -0.028766732662916183f, 
		-0.03927788510918617f, -0.0637250542640686f, 0.05787902697920799f, 0.018522480502724648f, 0.06901641190052032f, 
		0.006898858118802309f, 0.05714172497391701f, -0.04128577560186386f, 0.04528573900461197f, 0.002007779898121953f, 
		-0.04140665382146835f, -0.06897076964378357f, -0.039840374141931534f, 0.03303137794137001f, -0.026040252298116684f, 
		0.01350593101233244f, -0.010829384438693523f, -0.0396454781293869f, -0.04344326630234718f, -0.05716777965426445f, 
		0.0446942076086998f, -0.06745346635580063f, 0.01709684543311596f, 0.0648568794131279f, -0.05668853595852852f, 
		0.05687090381979942f, -0.07188693434000015f, -0.0636644959449768f, -0.005207008216530085f, 0.016623057425022125f, 
		-0.019959036260843277f, 0.023981789126992226f, -0.04475752264261246f, -0.05676090717315674f, 0.006597438827157021f, 
		-0.045371152460575104f, 0.05294044315814972f, -0.0356842465698719f, 0.024922218173742294f, 0.030385466292500496f, 
		0.013290539383888245f, 0.03499629721045494f, -0.05668514221906662f, 0.06854276359081268f, -0.01459387969225645f, 
		0.029812591150403023f, 0.03769102692604065f, -0.057499490678310394f, 0.0025180596858263016f, 0.05156955495476723f, 
		-2.079730802506674e-05f, -0.0654992088675499f, 0.03547734022140503f, -0.03665764629840851f, 0.011312579736113548f, 
		-0.020931357517838478f, 0.06404545158147812f, 0.05487152189016342f, -0.002203793730586767f, 0.06300187855958939f, 
		0.06801480799913406f, -0.009521713480353355f, -0.04860493168234825f, 0.04249110072851181f, -0.04078740254044533f, 
		-0.0405324250459671f, -0.044662922620773315f, 0.025907916948199272f, -0.01512241456657648f, 0.06503323465585709f, 
		-0.003698458895087242f, -0.04542909935116768f, -0.007574689574539661f, 0.03551856428384781f, 0.028207864612340927f, 
		-0.04478976130485535f, -0.0343950092792511f, -0.05499529093503952f, -0.028003960847854614f, -0.03836849704384804f, 
		-0.014423521235585213f, -0.04272279143333435f, 0.02190660499036312f, -0.03455059975385666f, -0.004929219838231802f, 
		-0.019943173974752426f, 0.060520876199007034f, -0.03152024745941162f, 0.05148852989077568f, 0.012438206002116203f, 
		-0.016004104167222977f, -0.040317777544260025f, -0.04994224011898041f, -0.030342290177941322f, -0.056125979870557785f, 
		-0.05956397205591202f, 0.04383062198758125f, 0.038522329181432724f, 0.04984812065958977f, -0.03912441432476044f, 
		0.06538854539394379f, 0.03205989673733711f, 0.04372703656554222f, -0.06192806363105774f, -0.0035281109157949686f, 
		0.05399112403392792f, 0.0007299300632439554f, 0.005537422373890877f, 0.028463220223784447f, -0.04893897846341133f, 
		0.05034710839390755f, 0.02729482762515545f, -0.059981442987918854f, -0.012417059391736984f, -0.02472534030675888f, 
		0.03105926886200905f, 0.018996262922883034f, -0.03599347546696663f, 0.05334774777293205f, 0.04945836216211319f, 
		-0.03228343278169632f, -0.02327585592865944f, -0.03475213423371315f, 0.02960825525224209f, 0.02790910378098488f, 
		-0.023366816341876984f, -0.05291077867150307f, 0.04463369399309158f, 0.050974030047655106f, 0.031955692917108536f, 
		0.04145345091819763f, -0.07240811735391617f, 0.030828101560473442f, 0.03291437402367592f, -0.007710049860179424f, 
		-0.0015759903471916914f, 0.061218250542879105f, -0.06400701403617859f, 0.013669006526470184f, -0.010202500969171524f, 
		-0.005605348385870457f, 0.02755851112306118f, 0.06338397413492203f, -0.055107232183218f, -0.020295051857829094f, 
		-0.003318218281492591f, 0.0637064054608345f, 0.029720710590481758f, -0.007465646136552095f, 0.06657411903142929f, 
		0.05298489332199097f, 0.034777965396642685f, 0.005808309186249971f, -0.045718565583229065f, 0.06038829684257507f, 
		0.013864407315850258f, -0.0553804449737072f, -0.05144060403108597f, -0.04379848763346672f, 0.050793297588825226f, 
		0.03921108320355415f, 0.01822841726243496f, 0.010038645006716251f, 0.056084927171468735f, -0.04809464141726494f, 
		0.05806703865528107f, 0.04210229963064194f, 0.05127336457371712f, 0.06689512729644775f, -0.001211532042361796f, 
		0.0211133174598217f, 0.023251963779330254f, -0.0640421211719513f, 0.02968030981719494f, 0.044471148401498795f, 
		0.04794694855809212f, 0.047906503081321716f, -0.016538308933377266f, 0.015920991078019142f, -0.009671800769865513f, 
		0.03654148429632187f, 0.0367497093975544f, 0.04830944538116455f, 0.045488785952329636f, 0.05750767141580582f, 
		0.005964573938399553f, -0.010211324319243431f, 0.023645952343940735f, 0.04560881108045578f, -0.03574427589774132f, 
		-0.03499623015522957f, 0.020654423162341118f, -0.0519498772919178f, -0.025870177894830704f, -0.057639941573143005f, 
		0.050589386373758316f, 0.05811562389135361f, -0.06451418995857239f, 0.04558221995830536f, 0.03447745367884636f, 
		0.05742752179503441f, -0.021270357072353363f, 0.017993969842791557f, -0.029022516682744026f, 0.044881775975227356f, 
		-0.00473620044067502f, -0.06415577232837677f, -0.020094627514481544f, -0.04078265652060509f, -0.016290923580527306f, 
		-0.061159320175647736f, 0.02858548052608967f, -0.05462975054979324f, -0.05332907289266586f, -0.027635149657726288f, 
		0.0714130699634552f, 0.009067265316843987f, -0.02634534053504467f, -0.048337776213884354f, -0.035822901874780655f, 
		-0.04858096316456795f, 0.002007518196478486f, -0.06263554096221924f, -0.0460396409034729f, -0.06086653843522072f, 
		-0.04280611872673035f, -0.04078856110572815f, 0.06088899448513985f, -0.06341130286455154f, 0.056832533329725266f, 
		0.017581956461071968f, 0.00290486728772521f, 0.0228541512042284f, 0.037806637585163116f, 0.020130038261413574f, 
		-0.03564148396253586f, 0.05917314067482948f, -0.015097436495125294f, 0.001502734492532909f, -0.02943737432360649f, 
		-0.046470142900943756f, -0.03770111873745918f, 0.052218079566955566f, 0.055921148508787155f, 0.0413137711584568f, 
		0.037918876856565475f, 0.0075417449697852135f, 0.030551852658391f, -0.06290276348590851f, 0.037927065044641495f, 
		-0.026290858164429665f, 0.008269451558589935f, -0.02251880057156086f, 0.003385943127796054f, 0.012504415586590767f, 
		-0.025718454271554947f, 0.0035443243104964495f, 0.006379757542163134f, -0.023461634293198586f, -0.0065704104490578175f, 
		-0.04845312982797623f, -0.03340674936771393f, 0.003603815333917737f, -0.011497145518660545f, -0.008088242262601852f, 
		-0.030613083392381668f, 0.039211805909872055f, -0.033847376704216f, -0.03669814020395279f, 0.049317486584186554f, 
		0.06081712990999222f, 0.057263318449258804f, 0.019701749086380005f, -0.01829914189875126f, 0.0640508159995079f, 
		-0.05141522362828255f, -0.016596542671322823f, -0.03133196011185646f, 0.038328029215335846f, -0.031078645959496498f, 
		-0.008893157355487347f, -0.044224780052900314f, 0.006220495328307152f, -0.034414324909448624f, -0.046985842287540436f, 
		0.0398135632276535f, 0.021632065996527672f, 0.0025241670664399862f, 0.06199771910905838f, -0.020987026393413544f, 
		0.030452169477939606f, 0.02809040993452072f, 0.021683303639292717f, 0.05623664706945419f, -0.025829199701547623f, 
		-0.057757362723350525f, -0.03363834694027901f, 0.004940937273204327f, -0.03142335265874863f, 0.019092442467808723f, 
		0.03040740080177784f, -0.00528559647500515f, 0.047899842262268066f, -0.032245293259620667f, -0.02617572620511055f, 
		-0.017830071970820427f, -0.06009579449892044f, 0.0058121695183217525f, 0.009255239740014076f, 0.020979149267077446f, 
		0.06254947930574417f, 0.01281984057277441f, 0.02722226269543171f, -0.04380057379603386f, -0.02065250091254711f, 
		-0.06354409456253052f, -0.023192159831523895f, -0.004728950560092926f, 0.02373194508254528f, 0.04713230952620506f, 
		-0.031325653195381165f, 0.04437684267759323f, -0.05716061592102051f, 0.02804778702557087f, 0.03749407082796097f, 
		-0.02812025509774685f, -0.03065977431833744f, -0.05140484869480133f, 0.05757761001586914f, 0.048148784786462784f, 
		-0.03601351007819176f, -0.0601961575448513f, 0.04370226711034775f, -0.007254030089825392f, -0.042334407567977905f, 
		-0.029527736827731133f, 0.03006877191364765f, -0.034422531723976135f, 0.020843014121055603f, -0.061565931886434555f, 
		-0.05508238449692726f, 0.030893389135599136f, 0.005582110024988651f, 0.03953758627176285f, 0.043104518204927444f, 
		0.01294703595340252f, -0.06589173525571823f, -0.0233317781239748f, 0.03189978748559952f, 0.006586223375052214f, 
		0.055678341537714005f, 0.012937752529978752f, 0.02676907368004322f, 0.007471057586371899f, 0.04761219024658203f, 
		0.059556994587183f, 0.02403412014245987f, -0.06868912279605865f, 0.03210362419486046f, -0.02215237356722355f, 
		0.0045282538048923016f, 0.04750124737620354f, 0.04731842130422592f, -0.001685752416960895f, 0.0020994299557060003f, 
		-0.00864237081259489f, 0.03807548061013222f, 0.002290492644533515f, 0.0004137931391596794f, -0.055544257164001465f, 
		-0.015079790726304054f, 0.02655263990163803f, -0.0714731439948082f, -0.00018626895325724036f, -0.04232606291770935f, 
		-0.044708799570798874f, -0.06454817205667496f, -0.0450604110956192f, 0.023352673277258873f, -0.04141075164079666f, 
		0.05704796314239502f, -0.009077521041035652f, -0.02371412143111229f, -0.0029674472752958536f, 0.01829492673277855f, 
		-0.06310998648405075f, -0.013308648020029068f, 0.01306760311126709f, 0.06338170915842056f, -0.02296040765941143f, 
		0.012290319427847862f, 6.406888132914901e-05f, -0.005725117865949869f, -0.006368512287735939f, -0.010176142677664757f, 
		-0.039113279432058334f, 0.0021223367657512426f, 0.06898084282875061f, -0.018947096541523933f, -0.003931719344109297f, 
		0.015036468394100666f, -0.0017903671832755208f, 0.025525271892547607f, 0.024359557777643204f, 0.008242316544055939f, 
		-0.03731851279735565f, -0.06973850727081299f, -0.04342961683869362f, 0.024744417518377304f, 0.00022802969033364207f, 
		0.06026936322450638f, -0.022482778877019882f, 0.042315829545259476f, -0.061568427830934525f, 0.047178737819194794f, 
		0.010347067378461361f, -0.030273722484707832f, -0.020782677456736565f, 0.03034834936261177f, 0.06661383807659149f, 
		-0.04943622648715973f, 0.0080771679058671f, -0.06798237562179565f, 0.0588996596634388f, -0.052761394530534744f, 
		0.05965941771864891f, -0.04851799085736275f, -0.02570261061191559f, -0.01083646435290575f, 0.04697339981794357f, 
		0.05913228541612625f, 0.0297031719237566f, 0.06298734247684479f, -0.008150041103363037f, -0.047750093042850494f, 
		0.03496847674250603f, 0.034797050058841705f, -0.00855084415525198f, -0.0463702417910099f, -0.03860265761613846f, 
		0.03747856989502907f, 0.01095807645469904f, -0.03118285909295082f, 0.019939633086323738f, 0.06185214966535568f, 
		-0.06842678040266037f, 0.05857161805033684f, -0.029310086742043495f, 0.0631457269191742f, -0.06229003146290779f, 
		0.015840603038668633f, -0.04362764582037926f, -0.0302121639251709f, 0.0243526604026556f, -0.02909594029188156f, 
		0.030207691714167595f, 0.02957618236541748f, 0.010174883529543877f, -0.01387009210884571f, 0.0043285614810884f, 
		-0.05965595319867134f, 0.02289019525051117f, 0.06234423816204071f, -0.030146215111017227f, 0.057837266474962234f, 
		0.039348483085632324f, 0.048035942018032074f, 0.03009997121989727f, -0.024379394948482513f, 0.03471733629703522f, 
		0.0035365421790629625f, -0.06583348661661148f, 0.016316911205649376f, 0.020836377516388893f, -0.010630793869495392f, 
		0.027916748076677322f, 0.04526647925376892f, -0.056588802486658096f, 0.017841465771198273f, -0.0475999191403389f, 
		0.017839832231402397f, 0.039171576499938965f, 0.00559126865118742f, 0.05638158321380615f, 0.036234915256500244f, 
		0.02006644569337368f, 0.0225218515843153f, -0.0658341720700264f, -0.008688005618751049f, -0.03422415629029274f, 
		0.0026678796857595444f, 0.0015160181792452931f, 0.020664123818278313f, 0.04923786222934723f, 0.024828914552927017f, 
		-0.06298215687274933f, 0.019101697951555252f, -0.044739920645952225f, -0.01154651865363121f, 0.05639510601758957f, 
		0.0552155077457428f, -0.06162121519446373f, 0.036742888391017914f, -0.06768610328435898f, 0.05484240874648094f, 
		0.022457748651504517f, 0.045630112290382385f, -0.05786283686757088f, 0.06079285964369774f, -0.033890508115291595f, 
		0.05452355742454529f, -0.06913607567548752f, 0.011498902924358845f, 0.06377256661653519f, -0.013156129978597164f, 
		0.04685835540294647f, 0.03736583888530731f, 0.04379652068018913f, -0.015803160145878792f, 0.03758709877729416f, 
		0.052273526787757874f, -0.022051122039556503f, 0.05800647661089897f, -0.032624389976263046f, 0.011326653882861137f, 
		0.06769023090600967f, -0.057676829397678375f, -0.02834046632051468f, -0.029126202687621117f, -0.00748123973608017f, 
		-0.01889791153371334f, 0.03347742184996605f, 0.02089659310877323f, 0.053743183612823486f, 0.029008539393544197f, 
		0.022127289324998856f, 0.06598114222288132f, 0.061606135219335556f, 0.05989890545606613f, -0.04347166046500206f, 
		0.03593970090150833f, 0.05479443445801735f, -0.061837293207645416f, -0.014125827699899673f, 0.04037415236234665f, 
		-0.014976522885262966f, -0.04163558408617973f, 0.04907432571053505f, 0.035824310034513474f, -0.007639829535037279f, 
		-0.06553496420383453f, 0.028607802465558052f, 0.009896335192024708f, 0.047052301466464996f, 0.0016917904140427709f, 
		0.05847463756799698f, 0.01864462159574032f, -0.03481068089604378f, -0.06818334013223648f, -0.007575235795229673f, 
		-0.03099490888416767f, -0.038555361330509186f, 0.05680668726563454f, -0.051800552755594254f, -0.03422221168875694f, 
		0.05049259215593338f, 0.021481076255440712f, -0.042302682995796204f, -0.04658385366201401f, -0.06158316880464554f, 
		0.038246337324380875f, 0.051672931760549545f, 0.02487197145819664f, 0.056020841002464294f, -0.04835336655378342f, 
		-0.05194655433297157f, -0.014661518856883049f, 0.028742922469973564f, -0.019125575199723244f, 0.06558453291654587f, 
		0.07007811218500137f, -0.030509527772665024f, -0.04863164573907852f, -0.03674285113811493f, -0.037577658891677856f, 
		-0.061637260019779205f, 0.0005828063003718853f, 0.04435613006353378f, -0.0042822579853236675f, 0.0680827647447586f, 
		0.018520059064030647f, 0.02622411958873272f, 0.029866373166441917f, -0.016584187746047974f, -0.003644712036475539f, 
		-0.036664512008428574f, -0.002692887559533119f, 0.06436057388782501f, -0.00027684136875905097f, 0.0539611279964447f, 
		0.025205416604876518f, 0.06512638181447983f, -0.05619804561138153f, 0.0367637574672699f, -0.032686006277799606f, 
		-0.022474022582173347f, 0.0015804899157956243f, 0.05151442438364029f, -0.005412484053522348f, -0.04648168012499809f, 
		0.024316521361470222f, -0.04068003594875336f, 0.0031069398391991854f, 0.024356091395020485f, 0.05037039890885353f, 
		-0.020432163029909134f, -0.020690327510237694f, -0.051232848316431046f, -0.014109425246715546f, -0.03437153622508049f, 
		0.0296547282487154f, 0.00042670624679885805f, 0.0065596941858530045f, 0.045034073293209076f, 0.012723934836685658f, 
		-0.05098297446966171f, 0.05622052028775215f, -0.03428661823272705f, -0.043815936893224716f, 0.0162219051271677f, 
		0.03147636353969574f, -0.05051267519593239f, -0.05438149720430374f, -0.002446745289489627f, -0.04850731045007706f, 
		0.06423261761665344f, -0.038625773042440414f, 0.02940697781741619f, -0.02185424603521824f, -0.03436910733580589f, 
		0.007873737253248692f, -0.03426250442862511f, -0.05046376958489418f, 0.014385558664798737f, 0.07147108763456345f, 
		-0.0489814355969429f, 0.022187447175383568f, -0.02389606460928917f, -0.04754691943526268f, -0.012115554884076118f, 
		-0.06365726888179779f, 0.05472956970334053f, -0.027154574170708656f, 0.05607170984148979f, -0.020572781562805176f, 
		0.019425833597779274f, -0.017210233956575394f, -0.050084155052900314f, 0.010287498123943806f, -0.018263759091496468f, 
		0.05593882128596306f, -0.002886141650378704f, -0.03957872837781906f, -0.018381334841251373f, 0.014988919720053673f, 
		0.01087682694196701f, -0.048035308718681335f, -0.04102235659956932f, 0.06790543347597122f, -0.027512934058904648f, 
		0.017301298677921295f, -0.018224284052848816f, 0.020771099254488945f, 0.009431013837456703f, -0.06647810339927673f, 
		-0.0019170354353263974f, -0.0009958685841411352f, 0.009596364572644234f, -0.05129123851656914f, 0.011950870044529438f, 
		0.019266104325652122f, 0.05032843351364136f, 0.028818588703870773f, -0.03214744105935097f, -0.05672646686434746f, 
		0.026880307123064995f, -0.05064566433429718f, 0.057854488492012024f, -0.06631011515855789f, 0.015618015080690384f, 
		-0.03341487795114517f, -0.06393343955278397f, -0.001943818642757833f, -0.05961892008781433f, -0.04131362587213516f, 
		-0.03439502418041229f, -0.05810309574007988f, 0.035286784172058105f, -0.016358312219381332f, 0.06227497756481171f, 
		0.02591848187148571f, -0.05600147694349289f, 0.05561665818095207f, 0.047576382756233215f, -0.053682100027799606f, 
		0.0177159421145916f, -0.0699048787355423f, 0.00126236816868186f, 0.029037753120064735f, -0.039997655898332596f, 
		-0.029102498665452003f, -0.029680173844099045f, 0.06056124344468117f, 0.028945261612534523f, 0.0623551681637764f, 
		0.03589342162013054f, 0.03863728791475296f, -0.008032853715121746f, -0.032014667987823486f, 0.04314832389354706f, 
		0.046558134257793427f, 0.015214509330689907f, 0.015934085473418236f, -0.040916744619607925f, 0.059053100645542145f, 
		-0.051326487213373184f, -0.025839509442448616f, 0.012960300780832767f, -0.030679797753691673f, -0.049010783433914185f, 
		-0.0314202643930912f, -0.059092048555612564f, -0.060889508575201035f, -0.06138346344232559f, -0.06819124519824982f, 
		0.011899644508957863f, 0.01036499347537756f, 0.04358465224504471f, -0.0650811716914177f, -0.0008275342988781631f, 
		0.0009589099790900946f, -0.06278093159198761f, 0.040631528943777084f, -0.05191388726234436f, -0.07135576754808426f, 
		0.00945387501269579f, -0.06100594252347946f, -0.034787021577358246f, 0.0211480800062418f, 0.0007979392539709806f, 
		0.0205985140055418f, 0.06122148409485817f, -0.02613588236272335f, 0.029158538207411766f, 0.001261714962311089f, 
		0.048432473093271255f, -0.00367523985914886f, 0.02973410300910473f, -0.04527391493320465f, -0.05194593220949173f, 
		0.0467243418097496f, -0.00350242480635643f, 0.0010448034154251218f, -0.06449924409389496f, 0.014983481727540493f, 
		0.04681500047445297f, 0.059136565774679184f, -0.03613530099391937f, -0.053402796387672424f, -0.0020343030337244272f, 
		0.01636366732418537f, -0.023120829835534096f, 0.04455939680337906f, -0.008551186881959438f, 0.033536288887262344f, 
		-0.060615818947553635f, 0.04591159150004387f, 0.04475327208638191f, -0.03635764122009277f, 0.007308488246053457f, 
		0.06358432024717331f, -0.013402845710515976f, -0.05038740485906601f, 0.022365937009453773f, -0.06782670319080353f, 
		-0.07220663875341415f, 0.005137201864272356f, -0.026140598580241203f, -0.05729551613330841f, 0.03413105010986328f, 
		0.04407922178506851f, 0.04273286834359169f, 0.007017752155661583f, -0.04780351743102074f, -0.020891357213258743f, 
		-0.01999538764357567f, -0.00820987019687891f, 0.03720194846391678f, -0.01604822650551796f, 0.04988672956824303f, 
		0.019625283777713776f, 0.026165055111050606f, -0.022296959534287453f, -0.0394713468849659f, 0.05430438369512558f, 
		0.056022584438323975f, 0.06829790025949478f, -0.023344235494732857f, 0.05832671374082565f, -0.052521947771310806f, 
		0.03962716832756996f, 0.0018655462190508842f, 0.06352421641349792f, 0.02643703669309616f, 0.01686045527458191f, 
		0.06298855692148209f, -0.04518095403909683f, -0.047460924834012985f, -0.0344698429107666f, 0.05810605734586716f, 
		-0.07253790646791458f, -0.039841871708631516f, 0.047164782881736755f, 0.052384860813617706f, 0.06088689714670181f, 
		0.022155126556754112f, -0.05484083294868469f, 0.05900917947292328f, 0.05838588625192642f, -0.05318608507514f, 
		0.06539300829172134f, -0.06567851454019547f, -0.007813988253474236f, 0.02571067586541176f, -0.041129738092422485f, 
		0.0030787563882768154f, -0.02098296955227852f, 0.06452364474534988f, 0.049638647586107254f, 0.06793658435344696f, 
		0.04398057982325554f, 0.017495635896921158f, 0.0011034474009647965f, 0.021295813843607903f, 0.05434262752532959f, 
		-0.030451035127043724f, 0.042674437165260315f, 0.023102134466171265f, 0.03837740793824196f, 0.0005363717209547758f, 
		0.04712250828742981f, -0.04638274759054184f, 0.02915024198591709f, 0.04206928238272667f, -0.010179108940064907f, 
		-0.06935466825962067f, 0.006565321236848831f, -0.035897620022296906f, 0.006920287851244211f, -0.04583378881216049f, 
		0.012316246517002583f, 0.04615988954901695f, 0.00915313046425581f, -0.003375193104147911f, 0.06317388266324997f, 
		-0.06942544877529144f, 0.06341575086116791f, -0.025642065331339836f, -0.07249017059803009f, 0.00011846722918562591f, 
		-0.0700589120388031f, 0.031918175518512726f, -0.06411748379468918f, 0.019043387845158577f, 0.02738194353878498f, 
		-0.027238966897130013f, 0.03448854759335518f, -0.04721233248710632f, -0.019504494965076447f, -0.011369309388101101f, 
		-0.0537160225212574f, -0.03020399622619152f, -0.05968655273318291f, -0.059712331742048264f, -0.03763337805867195f, 
		-0.04726327210664749f, -0.04367032274603844f, 0.03008139505982399f, 0.013698521070182323f, 0.01188583392649889f, 
		0.02207467146217823f, 0.0172564834356308f, -0.004712045192718506f, 0.047821030020713806f, -0.03533400967717171f, 
		0.06537961959838867f, 0.027163762599229813f, -0.015467309392988682f, 0.06951220333576202f, 0.015296082012355328f, 
		0.06682796031236649f, -0.00030025915475562215f, 0.06173377484083176f, -0.04618237167596817f, -0.001163286855444312f, 
		-0.05826571211218834f, 0.016519974917173386f, 0.028145819902420044f, -0.049152713268995285f, -0.03762498497962952f, 
		-0.06605305522680283f, -0.013973046094179153f, 0.06714840978384018f, 0.045896194875240326f, -0.049033742398023605f, 
		-0.045418523252010345f, 0.04181131720542908f, -0.06908911466598511f, -0.06753010302782059f, -0.028896000236272812f, 
		0.05570925027132034f, 0.05269201099872589f, 0.05185786634683609f, 0.02557186968624592f, -0.05277344211935997f, 
		-0.060296278446912766f, -0.0010421181796118617f, -0.06366877257823944f, -0.07152656465768814f, -0.0223192498087883f, 
		-0.05852656066417694f, -0.05809005722403526f, -0.05996568500995636f, -0.04533550515770912f, -0.05112319067120552f, 
		-0.05803581327199936f, 0.03226720169186592f, 0.06296350061893463f, -0.004435861483216286f, -0.04084896296262741f, 
		-0.032641660422086716f, 0.011063381098210812f, -0.039978206157684326f, 0.0014012492028996348f, 0.02050936408340931f, 
		0.018905555829405785f, -0.06520690768957138f, -0.0527985654771328f, -0.0036569719668477774f, -0.011644179932773113f, 
		0.028581315651535988f, -0.06300131976604462f, 0.05550266057252884f, -0.0632147490978241f, -0.05588969215750694f, 
		-0.022139228880405426f, -0.02105816639959812f, 0.036822911351919174f, -0.015061525627970695f, 0.05795985087752342f, 
		0.02077759988605976f, 0.06682038307189941f, -0.03613697737455368f, 0.01848149672150612f, -0.04112570732831955f, 
		0.05669460818171501f, 0.05554047226905823f, -0.02736060507595539f, 0.05371413007378578f, 0.042321570217609406f, 
		-0.03810253366827965f, 0.06085759773850441f, -0.014982582069933414f, 5.537060133065097e-05f, 0.03546934202313423f, 
		0.04546249285340309f, 0.054808974266052246f, -0.01917586475610733f, 0.021695364266633987f, -0.022763602435588837f, 
		0.017667558044195175f, -0.01900339499115944f, -0.005835602525621653f, -0.06640618294477463f, 0.02380654774606228f, 
		0.03720560669898987f, -0.04796358942985535f, 0.01730940118432045f, 0.027714572846889496f, -0.002802288392558694f, 
		-0.04199444502592087f, 0.007518026512116194f, 0.06629574298858643f, -0.04937314614653587f, -0.015393528155982494f, 
		0.017162464559078217f, 0.012442913837730885f, 0.0020928862504661083f, -0.009466730058193207f, -0.008342948742210865f, 
		0.059091441333293915f, -0.027476197108626366f, 0.048655226826667786f, 0.06638927757740021f, -0.02734876051545143f, 
		0.015467332676053047f, -0.03324747458100319f, 0.0430336631834507f, -0.013438452035188675f, 0.05594562739133835f, 
		-0.03314363211393356f, 0.04124397411942482f, 0.05052744597196579f, 0.007946587167680264f, 0.042226117104291916f, 
		-0.007735236547887325f, -0.032909318804740906f, 0.0373995415866375f, -0.014684706926345825f, -0.006163661368191242f, 
		-0.0026705109048634768f, -0.01957903616130352f, -0.006833567284047604f, 0.044717077165842056f, -0.0392279215157032f, 
		-0.04454302787780762f, -0.005113516468554735f, -0.0670614242553711f, 0.07187332212924957f, 0.04980635270476341f, 
		-0.029293714091181755f, -0.03357462212443352f, 0.040232740342617035f, -0.0016101456712931395f, -0.015568725764751434f, 
		0.017033541575074196f, -0.06298941373825073f, -0.05992300808429718f, 0.060085736215114594f, -0.026519551873207092f, 
		-0.0575592927634716f, 0.004253859631717205f, 0.054471272975206375f, -0.005173038691282272f, -0.03600960969924927f, 
		0.014369932934641838f, 0.02049277350306511f, 0.029073936864733696f, 0.05293372645974159f, 0.04477129876613617f, 
		-0.01033404003828764f, -0.02754991129040718f, 0.007183990441262722f, -0.04425781965255737f, 0.04891301319003105f, 
		-0.029200926423072815f, -0.07068286836147308f, -0.004747519735246897f, 0.03291260451078415f, 0.05826936289668083f, 
		-0.05085194855928421f, 0.017233284190297127f, 0.02787657082080841f, 0.06771563738584518f, -0.013206610456109047f, 
		0.047058843076229095f, -0.04903724789619446f, -0.03639914095401764f, -0.0502191036939621f, -0.009826208464801311f, 
		0.0072040860541164875f, 0.05301690101623535f, -0.057388752698898315f, 0.005616685841232538f, -0.06803178787231445f, 
		0.01555619016289711f, 0.040988318622112274f, 0.04596077650785446f, 0.03699101507663727f, -0.03534846752882004f, 
		-0.02961738221347332f, -0.07117785513401031f, -0.022336602210998535f, 0.05652247369289398f, -0.045147959142923355f, 
		-0.012668747454881668f, -0.020481763407588005f, -0.07119875401258469f, -0.05735845863819122f, 0.0030169463716447353f, 
		0.05736948922276497f, -0.007577319163829088f, 0.01025544386357069f, 0.004147603176534176f, 0.061005979776382446f, 
		0.05941621959209442f, 0.06207762286067009f, -0.06334887444972992f, 0.030618976801633835f, 0.0593794621527195f, 
		-0.023689214140176773f, -0.044251974672079086f, 0.01110032293945551f, -0.0383591502904892f, -0.062008220702409744f, 
		0.016794590279459953f, -0.05067567527294159f, -0.06175379082560539f, -0.05184576287865639f, -0.019453687593340874f, 
		-0.04951971396803856f, -0.05762767791748047f, 0.030598066747188568f, -0.06290681660175323f, 0.031679801642894745f, 
		-0.06892361491918564f, 0.001127086696214974f, 0.04611340910196304f, -0.032421212643384933f, -0.03395795449614525f, 
		0.05314375087618828f, 0.006744462996721268f, -0.013621948659420013f, 0.05441836267709732f, -0.06289079785346985f, 
		-0.018619248643517494f, 0.006693704519420862f, -0.027602538466453552f, -0.05986597761511803f, 0.06102946773171425f, 
		0.030915873125195503f, 0.018792307004332542f, -0.018718257546424866f, -0.06448880583047867f, 0.018014661967754364f, 
		-0.03797246143221855f, -0.04428420215845108f, 0.004517928697168827f, -0.057633303105831146f, -0.043177682906389236f, 
		-0.02156195603311062f, -0.044195570051670074f, -0.0701628178358078f, 0.0608728751540184f, 0.06964512914419174f, 
		0.06613431125879288f, -0.006148445885628462f, 0.05691097304224968f, 0.04487573355436325f, -0.007567071821540594f, 
		0.028490588068962097f, -0.04643947258591652f, -0.060179565101861954f, 0.006669805385172367f, 0.03980015218257904f, 
		0.0022720741108059883f, 0.07539504766464233f, 0.0003836030955426395f, -0.011763351038098335f, -0.02439740113914013f, 
		0.04243718460202217f, -0.0616169236600399f, -0.032304394990205765f, 0.06187794730067253f, 0.06366528570652008f, 
		0.021550253033638f, -0.050756409764289856f, -0.010925241746008396f, 0.017837727442383766f, -0.05008560046553612f, 
		0.0572785846889019f, 0.007865690626204014f, -0.03994288668036461f, -0.05696691945195198f, 0.05513068288564682f, 
		-0.04665207862854004f, 0.07011833041906357f, 0.0018876574467867613f, -0.02291097305715084f, 0.043684206902980804f, 
		0.012331375852227211f, 0.030586272478103638f, 0.039408035576343536f, 0.0021496436093002558f, 0.06209535896778107f, 
		-0.028521593660116196f, 0.028465157374739647f, -0.019378989934921265f, -0.04674137011170387f, 0.011396004818379879f, 
		-0.006935802288353443f, -0.01614464446902275f, 0.014757107011973858f, 0.000695280556101352f, 0.015863073989748955f, 
		-0.06509014964103699f, 0.034196361899375916f, 0.00908390898257494f, 0.014637622982263565f, 0.014439023099839687f, 
		0.05089247599244118f, 0.018987175077199936f, -0.06549844145774841f, -0.025886287912726402f, 0.009743056260049343f, 
		0.014762523584067822f, -0.06054458022117615f, 0.054740823805332184f, -0.03003227524459362f, 0.024079743772745132f, 
		-0.071535624563694f, -0.017765499651432037f, 0.0261374581605196f, -0.002433369867503643f, -0.02561405673623085f, 
		0.06204197183251381f, -0.020743733271956444f, 0.04305684193968773f, -0.021834103390574455f, 0.019660314545035362f, 
		0.03594469279050827f, -0.0012982519110664725f, -0.005588993430137634f, -0.00856042094528675f, 0.015858115628361702f, 
		-0.002565933158621192f, -0.03365539386868477f, -0.053660858422517776f, -0.060608215630054474f, 0.04704594239592552f, 
		0.03637999668717384f, 0.028636008501052856f, -0.023904550820589066f, 0.016548726707696915f, 0.047919560223817825f, 
		0.05450379103422165f, 0.06935489177703857f, -0.039612796157598495f, -0.019167393445968628f, 0.015267232432961464f, 
		0.04427993670105934f, -0.0016593432519584894f, 0.01766035333275795f, 0.04596768319606781f, -0.020491618663072586f, 
		-0.051459286361932755f, 0.012576122768223286f, -0.03859318792819977f, -0.06020998954772949f, 0.0029703311156481504f, 
		0.05702939257025719f, 0.03362167626619339f, 0.05331631377339363f, 0.00420824671164155f, 0.01491815410554409f, 
		-0.007583281956613064f, 0.03361933305859566f, -0.005348218139261007f, -0.042594101279973984f, 0.05618247017264366f, 
		-0.025823375210165977f, 0.007989506237208843f, -0.06908437609672546f, 0.05604361370205879f, -0.007531964685767889f, 
		-0.052627138793468475f, 0.04246927425265312f, -0.02841377444565296f, 0.04802223667502403f, 0.05347761511802673f, 
		0.033811669796705246f, 0.03786613792181015f, 0.017156412824988365f, -0.05179717019200325f, -0.06950041651725769f, 
		-0.06459585577249527f, 0.00957439374178648f, -0.04827672243118286f, -0.03289928287267685f, 0.035623397678136826f, 
		0.06697998940944672f, -0.03849542886018753f, -0.004601015709340572f, 0.031901661306619644f, 0.02734559401869774f, 
		-0.006218696013092995f, -0.0412646122276783f, 0.01419662032276392f, 0.0022009245585650206f, -0.016588866710662842f, 
		0.0573078952729702f, -0.04278142750263214f, 0.026797909289598465f, 0.05702781304717064f, 0.049905795603990555f, 
		0.022042449563741684f, 0.0356924869120121f, -0.03042600303888321f, 0.053268276154994965f, 0.007088311482220888f, 
		-0.02919255755841732f, 0.030767763033509254f, 0.04594985768198967f, -0.06698793172836304f, 0.027283184230327606f, 
		-0.028850505128502846f, 0.057780344039201736f, -0.06645707041025162f, -0.0013531906297430396f, -0.02925877831876278f, 
		-0.0019055157899856567f, 0.014783904887735844f, 0.05694156140089035f, -0.0610772930085659f, -0.034711483865976334f, 
		-0.03667851909995079f, -0.06966813653707504f, -0.021299775689840317f, -0.019964637234807014f, -0.04837462678551674f, 
		-0.032555148005485535f, 0.051598429679870605f, -0.03560011461377144f, 0.028430284932255745f, -0.018153807148337364f, 
		0.06197522580623627f, -0.055867016315460205f, 0.003174485871568322f, 0.06383992731571198f, 0.023384498432278633f, 
		-0.06457321345806122f, 0.04790271818637848f, -0.0195956788957119f, -0.024898599833250046f, -0.012411646544933319f, 
		-0.009847363457083702f, -0.03383524715900421f, -0.05475769564509392f, 0.05475097522139549f, 0.042271073907613754f, 
		-0.04486434906721115f, 0.06476785987615585f, 0.022313904017210007f, -0.053608186542987823f, 0.03501850739121437f, 
		-0.04214034229516983f, -0.02659623511135578f, -0.01000578235834837f, 0.04222680255770683f, 0.04105415940284729f, 
		0.008749035187065601f, -0.03898834064602852f, 0.006629148032516241f, -0.022712916135787964f, 0.0377383790910244f, 
		0.008924251422286034f, 0.029099153354763985f, -0.048514384776353836f, 0.06478895992040634f, -0.00032875052420422435f, 
		-0.028805924579501152f, -0.059122659265995026f, 0.028279731050133705f, 0.017142420634627342f, 0.03119683265686035f, 
		-0.06061660870909691f, 0.036589544266462326f, 0.014525827020406723f, -0.005548357963562012f, -0.05794917047023773f, 
		-0.04640991613268852f, 0.04365457221865654f, 0.01893753372132778f, -0.02476762980222702f, 0.04173451289534569f, 
		0.01292326208204031f, 0.04189479351043701f, -0.00386857520788908f, -0.0336313396692276f, -0.05860988795757294f, 
		-0.023779945448040962f, -0.03164903447031975f, -0.011525333859026432f, 0.02551223710179329f, 0.013309657573699951f, 
		0.011617579497396946f, 0.05742795392870903f, -0.05284707248210907f, 0.014341662637889385f, -0.00567221362143755f, 
		-0.0008047189330682158f, -0.03491303324699402f, 0.03219301998615265f, 0.029474105685949326f, -0.052891846746206284f, 
		0.008788556791841984f, -0.025894582271575928f, 0.062299422919750214f, -0.04396102577447891f, 0.008222215808928013f, 
		0.0686926543712616f, -0.0712658017873764f, -0.059172648936510086f, -0.07122580707073212f, -0.01401769183576107f, 
		0.017757708206772804f, -0.038983605802059174f, -0.04542434215545654f, -0.06170480325818062f, -0.04025580734014511f, 
		0.04601321741938591f, 0.05932386964559555f, 0.05594872683286667f, -0.025448769330978394f, -0.04904209449887276f, 
		0.017418239265680313f, -0.017251497134566307f, -0.0012526256032288074f, -0.06297574937343597f, -0.056546650826931f, 
		0.04901868477463722f, -0.013836889527738094f, 0.0044633676297962666f, -0.027401424944400787f, 0.06677354127168655f, 
		-0.03991267830133438f, 0.01487947627902031f, 0.0690976232290268f, 0.035165827721357346f, -0.03512262925505638f, 
		0.038199152797460556f, 0.03465196490287781f, 0.017120150849223137f, -0.04915771260857582f, 0.062308989465236664f, 
		-0.016456086188554764f, -0.036787986755371094f, 0.04771805927157402f, -0.06934518367052078f, -0.011244666762650013f, 
		-0.05138105899095535f, -0.02897125668823719f, 0.012809504754841328f, -2.968916487589013e-05f, -0.01801089197397232f, 
		-0.06000283360481262f, -0.01091147493571043f, -0.0051947711035609245f, -0.02088482864201069f, -0.0698673203587532f, 
		0.028396759182214737f, -0.034690238535404205f, -0.008796442300081253f, 0.04459509998559952f, 0.014203165657818317f, 
		0.03729581460356712f, 0.051848020404577255f, -0.038147930055856705f, -0.022649571299552917f, -0.011404704302549362f, 
		-0.06788242608308792f, -0.03783348947763443f, 0.03191511332988739f, -0.005940055008977652f, -0.008256776258349419f, 
		-0.060342174023389816f, 0.04676532745361328f, 0.0415581539273262f, -0.050748515874147415f, 0.06359489262104034f, 
		0.005443533416837454f, -0.011853599920868874f, -0.029832748696208f, 0.06427953392267227f, 0.04812651872634888f, 
		0.013255965895950794f, 0.00253909919410944f, -0.04219193011522293f, 0.035491131246089935f, 0.03714242950081825f, 
		0.020006027072668076f, 0.031625960022211075f, -0.01988169550895691f, -0.019554350525140762f, -0.04617341235280037f, 
		-0.03327334672212601f, -0.017934635281562805f, -0.051595717668533325f, -0.034404631704092026f, 0.0035718006547540426f, 
		-0.023184355348348618f, 0.06946726143360138f, -0.07013893127441406f, -0.06557878106832504f, -0.003422117792069912f, 
		-0.06311409920454025f, -0.03565596416592598f, -0.03051804006099701f, -0.01334311906248331f, 0.030702674761414528f, 
		0.05654401704668999f, 0.01241813600063324f, -0.035454947501420975f, 0.022668899968266487f, 0.04366429150104523f, 
		-0.052972085773944855f, -0.011990388855338097f, -0.00035393377766013145f, 0.037157025188207626f, 0.049180854111909866f, 
		-0.04373153671622276f, -0.022441638633608818f, -0.02430044487118721f, -0.014068291522562504f, -0.06564554572105408f, 
		-0.02445325255393982f, -0.039001211524009705f, -0.061137739568948746f, 0.003277151845395565f, -0.04835040867328644f, 
		0.03753582388162613f, -0.04664216563105583f, 0.03260917216539383f, 0.03823981434106827f, 0.03739933669567108f, 
		-0.02677670493721962f, 0.010538962669670582f, -0.05513957515358925f, -0.009647704660892487f, -0.015383190475404263f, 
		-0.015833565965294838f, 0.003961039241403341f, -0.055417679250240326f, -0.01366001833230257f, -0.028140347450971603f, 
		-0.06564322859048843f, -0.04055236279964447f, -0.02248593233525753f, 0.015398050658404827f, 0.004277974367141724f, 
		0.041394855827093124f, 0.0034822009038180113f, 0.034364715218544006f, -0.03621785715222359f, -0.018794938921928406f, 
		0.022770317271351814f, -0.02628472074866295f, -0.032568637281656265f, -0.050950124859809875f, 0.046419620513916016f, 
		-0.06017935276031494f, 0.061726950109004974f, 0.00938094686716795f, 0.057393986731767654f, -0.04364708065986633f, 
		-0.0669272392988205f, 0.03131105750799179f, 0.03523896262049675f, -0.05923253670334816f, 0.05777011811733246f, 
		-0.023736506700515747f, -0.04475035518407822f, -0.06314757466316223f, 0.05592300370335579f, -0.05349504575133324f, 
		0.02641366980969906f, -0.02326381392776966f, 0.06998372822999954f, -0.021010156720876694f, -0.06798578798770905f, 
		-0.06991568207740784f, -0.05101534351706505f, -0.0018709333380684257f, 0.0444265678524971f, 0.05641573294997215f, 
		-0.01181899942457676f, -0.001438235747627914f, -0.056786809116601944f, 0.042081043124198914f, -0.03743484616279602f, 
		0.04439075291156769f, -0.030398771166801453f, 0.04415294900536537f, -0.04176795855164528f, -0.017763521522283554f, 
		-0.06878470629453659f, -0.017894165590405464f, 0.01591177098453045f, 0.011868821457028389f, 0.06505966931581497f, 
		-0.01813090592622757f, 0.036688949912786484f, 0.03700972720980644f, -0.02454410307109356f, -0.05018317326903343f, 
		0.05172901973128319f, 0.04725629836320877f, -0.021474819630384445f, -0.0374954529106617f, -0.010969712398946285f, 
		0.02948194555938244f, -0.02925764210522175f, -0.016412796452641487f, 0.061703454703092575f, -0.034784991294145584f, 
		0.03540348261594772f, 0.01570320315659046f, 0.03233898803591728f, 0.031220529228448868f, 0.05439668521285057f, 
		-0.01605295017361641f, -0.05783264711499214f, 0.052565496414899826f, -0.03444693237543106f, -0.0667608454823494f, 
		0.03436173498630524f, 0.02267063409090042f, 0.02944844774901867f, -0.04075343534350395f, -0.06689684838056564f, 
		-0.016304025426506996f, -0.0048597450368106365f, -0.05799005553126335f, -0.03460191935300827f, -0.059874922037124634f, 
		0.03030773252248764f, -0.036516446620225906f, 0.06352362781763077f, -0.04881338030099869f, -0.004283219110220671f, 
		0.03836540877819061f, -0.04019513726234436f, 0.02193228155374527f, 0.012757202610373497f, 0.05347110703587532f, 
		-0.0018986057257279754f, 0.05401129648089409f, -0.0323353074491024f, -0.01759151928126812f, 0.03588884696364403f, 
		0.04915105178952217f, 0.04416507109999657f, 0.005211514886468649f, -0.004883899353444576f, -0.04663483053445816f, 
		0.06052673980593681f, 0.03696311265230179f, -0.0444689616560936f, -0.06479521095752716f, 0.017034776508808136f, 
		0.06875743716955185f, 0.042644962668418884f, 0.01321463193744421f, 0.05359789356589317f, -0.037496451288461685f, 
		0.024242345243692398f, 0.04384691268205643f, 0.045397985726594925f, 0.019601617008447647f, -0.03012264519929886f, 
		0.0064470418728888035f, -0.004746937192976475f, 0.033218540251255035f, -0.038022108376026154f, 0.05173046514391899f, 
		0.013992956839501858f, -0.01653447188436985f, -0.0024077966809272766f, 0.0015827855095267296f, 0.022819971665740013f, 
		0.036213818937540054f, -0.06946438550949097f, -0.06511145085096359f, -0.01581910066306591f, -0.03633949160575867f, 
		-0.041312817484140396f, -0.015024867840111256f, -0.02167143113911152f, -0.014482354745268822f, -0.008696201257407665f, 
		0.0348251573741436f, -0.013823787681758404f, -0.04105398431420326f, -0.023644736036658287f, -0.01877104677259922f, 
		-0.050617266446352005f, -0.052527789026498795f, -0.0412459596991539f, -0.04467398300766945f, 0.021684786304831505f, 
		0.02731684409081936f, -0.025211380794644356f, -0.04404095932841301f, 0.05381329730153084f, -0.033172767609357834f, 
		0.003987868782132864f, 0.0017553494544699788f, -0.037022631615400314f, 0.02207072265446186f, -0.01626850664615631f, 
		0.035825420171022415f, -0.041804082691669464f, -0.015513530001044273f, 0.028220150619745255f, 0.007048181723803282f, 
		-0.036670200526714325f, -0.01649460941553116f, -0.030189890414476395f, -0.007091048639267683f, -0.03554694354534149f, 
		0.04438382387161255f, 0.065977081656456f, -0.010620023123919964f, -0.002461866242811084f, 0.04458291828632355f, 
		-0.05471152812242508f, -0.013895844109356403f, -0.0486154668033123f, -0.06758265942335129f, 0.027676550671458244f, 
		-0.048839788883924484f, -0.02744818478822708f, -0.03746030107140541f, -0.04727012291550636f, -0.03565295413136482f, 
		-0.03746271878480911f, 0.018679292872548103f, 0.035789407789707184f, -0.05927596613764763f, -0.03175850957632065f, 
		-0.026630671694874763f, -0.02545570209622383f, 0.017175596207380295f, -0.017579281702637672f, 0.05537478253245354f, 
		-0.07100529223680496f, -0.024328598752617836f, -0.042226940393447876f, 0.0007117155473679304f, -0.012215669266879559f, 
		-0.03754136338829994f, -0.0071130902506411076f, -0.0042182207107543945f, -0.05689595639705658f, 0.03725295141339302f, 
		0.005899710580706596f, -0.0020622832234948874f, -0.02090575359761715f, 0.03348320350050926f, -0.06105482578277588f, 
		0.02161513827741146f, 0.04961150139570236f, -0.02957729622721672f, 0.025316253304481506f, 0.002394706942141056f, 
		0.006447814870625734f, -0.007254915311932564f, 0.06011839210987091f, -0.01344821322709322f, 0.06435749679803848f, 
		-0.03508368134498596f, 0.051431138068437576f, 0.045377541333436966f, 0.050095826387405396f, -0.038857247680425644f, 
		-0.055480290204286575f, 0.026065990328788757f, 0.009010571986436844f, 0.05620422586798668f, -0.003098902991041541f, 
		-0.012523193843662739f, 0.03618641570210457f, -0.026211749762296677f, -0.06280064582824707f, 0.014898023568093777f, 
		0.06716903299093246f, -0.06947137415409088f, -0.017807727679610252f, -0.06616239249706268f, -0.036036357283592224f, 
		0.018865449354052544f, 0.05798858776688576f, 0.0021508235950022936f, -0.040577396750450134f, 0.05224942788481712f, 
		0.03731926903128624f, -0.050320569425821304f, 0.04724922403693199f, -0.031223975121974945f, -0.018788933753967285f, 
		0.056370146572589874f, 0.004395854659378529f, -0.033232588320970535f, 0.05225732922554016f, 0.06083611398935318f, 
		0.028645053505897522f, -0.02072661742568016f, -0.0448746383190155f, 0.014805629849433899f, -0.031092382967472076f, 
		-0.057777028530836105f, -0.0005837437929585576f, -0.0010062532965093851f, -0.03701222315430641f, 0.05378669500350952f, 
		0.06862755119800568f, -0.005038239993155003f, -0.02824733592569828f, -0.019439851865172386f, -0.007796175312250853f, 
		0.002510119928047061f, 0.05572030320763588f, 0.030274946242570877f, -0.03403688967227936f, 0.0669519379734993f, 
		0.018453212454915047f, -0.038501251488924026f, 0.04584791511297226f, -0.06267275661230087f, -0.027723735198378563f, 
		-0.031174901872873306f, -0.06874066591262817f, 0.06972941011190414f, 0.059774212539196014f, 0.0029925766866654158f, 
		-0.02622808888554573f, -0.05040878430008888f, 0.013945258222520351f, -0.0254810843616724f, 0.057684317231178284f, 
		-0.0616438053548336f, 0.05778893455862999f, -0.05433671548962593f, 0.06746841967105865f, -0.04720991849899292f, 
		0.022708464413881302f, -0.03258844092488289f, 0.02574826218187809f, -0.0120729124173522f, -0.030944421887397766f, 
		0.0014216969721019268f, -0.03829294443130493f, 0.008965960703790188f, -0.008255265653133392f, -0.0495685450732708f, 
		0.03719644993543625f, 0.035883016884326935f, -0.04783789813518524f, 0.06392475962638855f, -0.05238428711891174f, 
		0.04058881476521492f, -0.010265770368278027f, 0.0362628772854805f, 0.00021256995387375355f, -0.004825488664209843f, 
		-0.0693855956196785f, -0.04319385066628456f, -0.03661980479955673f, 0.0104844244197011f, 0.01991945318877697f, 
		-0.04734469950199127f, -0.04491608217358589f, -0.04811595752835274f, 0.011658582836389542f, 0.04723021015524864f, 
		-0.06572525948286057f, 0.04558468610048294f, -0.04753288999199867f, -0.0332394614815712f, 0.04654799774289131f, 
		-0.058367613703012466f, 0.017003677785396576f, 0.053033389151096344f, -0.023698458448052406f, -0.03677386790513992f, 
		0.05507855862379074f, -0.06301656365394592f, -0.005963774863630533f, -0.04677802324295044f, 0.03176696226000786f, 
		-0.0092734694480896f, 0.06555268913507462f, -0.06964511424303055f, -0.0001649584883125499f, -0.038128528743982315f, 
		0.05545138567686081f, 0.018425945192575455f, 0.02421329915523529f, 0.04018309339880943f, 0.03299766778945923f, 
		0.05347975715994835f, -0.0656062513589859f, -0.008813342079520226f, 0.007540693040937185f, -0.031602464616298676f, 
		-0.036812689155340195f, 0.038753245025873184f, -0.010948732495307922f, 0.01055697537958622f, -0.012561174109578133f, 
		0.0509318932890892f, -0.016506893560290337f, -0.06986867636442184f, 0.020399782806634903f, -0.0602334663271904f, 
		0.06094294786453247f, 0.020794382318854332f, 0.0417264886200428f, -0.0558302141726017f, 0.017071807757019997f, 
		0.0293777734041214f, -0.06918268650770187f, -0.04884280264377594f, 0.03936506062746048f, 0.05578078702092171f, 
		0.05268792808055878f, 0.015459383837878704f, -0.012271047569811344f, -0.016510574147105217f, -0.07035472244024277f, 
		0.06366054713726044f, -0.013433278538286686f, -0.014817727729678154f, -0.02778054028749466f, 0.03023376688361168f, 
		0.030892735347151756f, -0.06106789410114288f, 0.041107986122369766f, 0.061858881264925f, -0.009799730032682419f, 
		-0.03248840570449829f, -0.06392258405685425f, 0.06591261178255081f, -0.0521259643137455f, -0.05223345011472702f, 
		0.04301207512617111f, -0.0395130030810833f, 0.023453859612345695f, 0.03311535343527794f, 0.027124084532260895f, 
		0.018994996324181557f, -0.03686053305864334f, 0.05551951378583908f, -0.06198751926422119f, 0.05082248896360397f, 
		0.03359207883477211f, 0.018030881881713867f, 0.03750016912817955f, -0.025036394596099854f, -0.03287794440984726f, 
		-0.018283355981111526f, -0.02394964173436165f, 0.03742435574531555f, -0.04049684852361679f, -0.05684062838554382f, 
		0.041766878217458725f, 0.06909751892089844f, 0.049296747893095016f, -0.02006499283015728f, -0.04560792073607445f, 
		-0.0017222369788214564f, -0.048665326088666916f, -0.055459581315517426f, 0.05977075174450874f, -0.05910994112491608f, 
		0.028966648504137993f, -0.05311043560504913f, 0.019832583144307137f, 0.04406948387622833f, -0.009152650833129883f, 
		-0.04406467825174332f, -0.05225268378853798f, 0.052005697041749954f, -0.03308311849832535f, -0.004899738822132349f, 
		0.007371188141405582f, 0.0649963840842247f, -0.015480399131774902f, -0.05464969202876091f, 0.012153347954154015f, 
		0.028509430587291718f, -0.0546015240252018f, -0.024394284933805466f, 0.04009284824132919f, 0.05597219243645668f, 
		0.049918368458747864f, 0.054962847381830215f, 0.006864875555038452f, 0.012534362263977528f, 0.06735274195671082f, 
		0.05763803422451019f, -0.033413760364055634f, -0.014043622650206089f, -0.0025938197504729033f, -0.03651581332087517f, 
		-0.04893480986356735f, -0.004704749211668968f, 0.013792254962027073f, -0.04190099984407425f, -0.014466527849435806f, 
		0.04905897006392479f, 0.04892812296748161f, -0.058524854481220245f, 0.0012739618541672826f, -0.03863363713026047f, 
		-0.0488884411752224f, -0.04613935947418213f, 0.06390377134084702f, 0.06699176132678986f, -0.07168984413146973f, 
		-0.03963819518685341f, 0.037028562277555466f, -0.05613875016570091f, -0.059150274842977524f, -0.03438738361001015f, 
		0.05624227598309517f, 0.04193248972296715f, -0.05655970051884651f, -0.033809907734394073f, 0.03160904347896576f, 
		0.004080642946064472f, 0.002264362759888172f, 0.03928349167108536f, 0.04632236436009407f, 0.04008970782160759f, 
		0.035909753292798996f, -0.0524066798388958f, -0.045201241970062256f, -0.01076870784163475f, -0.044231120496988297f, 
		0.061985112726688385f, -0.015103255398571491f, -0.026923343539237976f, 0.05803024768829346f, -0.0215481985360384f, 
		0.02503030374646187f, -0.0251338891685009f, 0.03852349892258644f, -0.06743679195642471f, 0.05578925833106041f, 
		0.023979732766747475f, -0.058879975229501724f, -0.028385145589709282f, 0.012680167332291603f, 0.024318352341651917f, 
		0.03069515898823738f, -0.005443977192044258f, -0.05880047008395195f, 0.018138429149985313f, -0.001341111958026886f, 
		0.00209173746407032f, -0.0023976347874850035f, -0.03739196062088013f, -0.06732577085494995f, -0.06716062128543854f, 
		-0.04323102533817291f, -0.054471760988235474f, 0.0026686033234000206f, 0.06631142646074295f, -0.01535751298069954f, 
		0.0270790196955204f, -0.03263450041413307f, -0.04284941405057907f, 0.002160077216103673f, 0.060864537954330444f, 
		0.003590982872992754f, 0.031112786382436752f, 0.050492484122514725f, 0.048456352204084396f, -0.06125973165035248f, 
		0.022320767864584923f, -0.018290085718035698f, 0.06268961727619171f, -0.041741807013750076f, 0.04671556502580643f, 
		-0.02067912556231022f, 0.0004111671296413988f, -0.04986002668738365f, -0.06884831935167313f, 0.04965122044086456f, 
		-0.002750504994764924f, -0.0017636441625654697f, -0.00537219550460577f, 0.048196084797382355f, 0.00995336752384901f, 
		0.03581099957227707f, -0.05248117446899414f, 0.01682286709547043f, -0.030436860397458076f, -0.05948227271437645f, 
		0.03842397779226303f, 0.0507856048643589f, 0.04493076354265213f, -0.04074878245592117f, 0.00775208929553628f, 
		-0.06681668013334274f, 0.061060067266225815f, -0.036351703107357025f, 0.020151905715465546f, -0.04107435792684555f, 
		0.013029797002673149f, 0.031217999756336212f, -0.05484503507614136f, -0.0009936467977240682f, -0.013133454136550426f, 
		-0.029336243867874146f, 0.059304915368556976f, 0.025697864592075348f, -0.0526566356420517f, -0.06610752642154694f, 
		-0.052342142909765244f, -0.01600665971636772f, 0.0657573938369751f, 0.07064376026391983f, 0.054974161088466644f, 
		0.06777754426002502f, 0.01293884590268135f, 0.06093207746744156f, 0.005483727436512709f, 0.04674738645553589f, 
		-0.03164217621088028f, -0.027177350595593452f, -0.02061380259692669f, 0.06976088881492615f, -0.050164781510829926f, 
		-0.06787879019975662f, 0.023107899352908134f, 0.017611995339393616f, 0.02417648397386074f, 0.014503623358905315f, 
		-0.02787717990577221f, 0.013136050663888454f, 0.003033578163012862f, 0.05293390527367592f, -0.032705266028642654f, 
		-0.0319395512342453f, -0.008674067445099354f, 0.009478285908699036f, 0.05123138427734375f, 0.028574761003255844f, 
		0.048005297780036926f, -0.022502657026052475f, 0.023363562300801277f, 0.06050582230091095f, -0.01581348292529583f, 
		0.0603923499584198f, -0.062346458435058594f, 0.05026337504386902f, -0.03912567347288132f, 0.0012187673710286617f, 
		-0.06385467946529388f, 0.034156665205955505f, 0.03445698693394661f, -0.059450604021549225f, -0.025937246158719063f, 
		-0.025078363716602325f, -0.03654522821307182f, -0.06899531930685043f, 0.047965794801712036f, -0.06144419312477112f, 
		0.0378732867538929f, -0.06406307965517044f, -0.011225814931094646f, 0.017270397394895554f, -0.01439376175403595f, 
		0.01020981464534998f, 0.044059719890356064f, -0.0559028685092926f, -0.010837395675480366f, 0.05275498330593109f, 
		-0.024712419137358665f, 0.008449187502264977f, 0.014518031850457191f, -0.06363195925951004f, 0.02314905822277069f, 
		0.04819468781352043f, 0.028806844726204872f, 0.06445517390966415f, 0.010184155777096748f, -0.014173273928463459f, 
		-0.06664767116308212f, 0.06714608520269394f, -0.06301100552082062f, 0.009506111964583397f, 0.014011919498443604f, 
		-0.01875109039247036f, 0.06699233502149582f, -0.01640351302921772f, -0.024376647546887398f, 0.028523357585072517f, 
		-0.06926785409450531f, 0.02561098150908947f, -0.02657780982553959f, -0.0037722510751336813f, -0.005822590086609125f, 
		0.021275939419865608f, -0.017232218757271767f, -0.06702225655317307f, -0.03574804961681366f, 0.01307678408920765f, 
		0.06927495449781418f, 0.05050239711999893f, -0.03198978677392006f, -0.0606500618159771f, -0.06442324072122574f, 
		-0.007732837926596403f, 0.06616039574146271f, 0.06078056991100311f, 0.021199103444814682f, -0.015864446759223938f, 
		0.025968369096517563f, -0.005958408582955599f, 0.01082946639508009f, 0.053250495344400406f, 0.06577792018651962f, 
		-0.01986311748623848f, 0.02565835788846016f, 0.027716010808944702f, 0.0618804432451725f, 0.01361133623868227f, 
		0.06007711589336395f, -0.021374469622969627f, 0.023997819051146507f, -0.02675512433052063f, 0.03647511824965477f, 
		-0.009806239977478981f, -0.04921950399875641f, 0.02139696478843689f, -0.04407371208071709f, -0.0017440710216760635f, 
		-0.03858064115047455f, 0.005590793676674366f, 0.00726011348888278f, -0.051163896918296814f, -0.03351888433098793f, 
		-0.010973307304084301f, -0.014437003061175346f, -0.00963960587978363f, -0.006206176709383726f, -0.007512494456022978f, 
		0.0630226656794548f, 0.05221833288669586f, 0.06514856964349747f, 0.05641012638807297f, -0.023538241162896156f, 
		-0.06314068287611008f, -0.0032087028957903385f, 0.056019868701696396f, 0.02116384357213974f, 0.06089989095926285f, 
		-0.04318811371922493f, -0.04912441596388817f, -0.007801208179444075f, -0.02797859162092209f, 0.05348806455731392f, 
		-0.02255697175860405f, -0.039593107998371124f, -0.03299295902252197f, 0.057536110281944275f, 0.05409831181168556f, 
		0.007548036985099316f, -0.04053380712866783f, -0.004868950229138136f, -0.01121567003428936f, 0.03487401083111763f, 
		-0.02782132290303707f, -0.07137106359004974f, 0.0397656075656414f, -0.006651691626757383f, -0.041732583194971085f, 
		0.015475313179194927f, -0.008991464972496033f, -0.018905915319919586f, 0.04952062666416168f, 0.02951294369995594f, 
		-0.012252744287252426f, -0.0652138739824295f, -0.05876465141773224f, 0.0558510422706604f, -0.0708659291267395f, 
		0.0055625163950026035f, 0.014641023240983486f, -0.0014330842532217503f, 0.022601908072829247f, 0.03020469844341278f, 
		-0.007233054377138615f, 0.02942841872572899f, 0.03340642899274826f, -0.0032060525845736265f, 0.04442029818892479f, 
		0.04405058175325394f, 0.025590376928448677f, 0.03976317495107651f, 0.007734257262200117f, 0.027131568640470505f, 
		-0.014629198238253593f, -0.027208203449845314f, 0.06813709437847137f, 0.03444664552807808f, 0.003029335755854845f, 
		-0.013166303746402264f, 0.03144010901451111f, 0.011446398682892323f, -0.022785412147641182f, -0.04716511070728302f, 
		-0.046112388372421265f, -0.00893096998333931f, 0.03126055374741554f, -0.02244909480214119f, 0.008672438561916351f, 
		0.054483573883771896f, -0.06600210815668106f, -0.021980293095111847f, 0.017708413302898407f, 0.05163650959730148f, 
		-0.043735913932323456f, -0.03735555335879326f, -0.018558049574494362f, 0.021321209147572517f, -0.029163898900151253f, 
		0.029253963381052017f, -0.03892148286104202f, 0.017837051302194595f, -0.05212520807981491f, 0.006951355841010809f, 
		-0.05385720357298851f, -0.041392732411623f, -0.06071130931377411f, -0.020967062562704086f, 0.02923240326344967f, 
		-0.006420757155865431f, -0.06225242093205452f, -0.008744437247514725f, 0.006329786963760853f, -0.04747694358229637f, 
		-0.049958329647779465f, -0.021145613864064217f, -0.07128506153821945f, -0.06274320930242538f, 0.0483190082013607f, 
		0.06686684489250183f, 0.049299437552690506f, 0.030960693955421448f, 0.007923483848571777f, 0.03853533789515495f, 
		0.059824079275131226f, -0.044355254620313644f, 0.024432122707366943f, 0.039213284850120544f, 0.020346587523818016f, 
		-0.039115335792303085f, -0.05257933586835861f, 0.03881743550300598f, -0.029053933918476105f, 0.012920115143060684f, 
		0.02087387628853321f, 0.055470310151576996f, -0.0011215938720852137f, 0.050360843539237976f, -0.03784309700131416f, 
		0.017192373052239418f, -0.007208830211311579f, 0.010344368405640125f, -0.032243456691503525f, 0.010313078761100769f, 
		-0.05321937054395676f, -0.024229079484939575f, -0.05069632828235626f, 0.013859031721949577f, -0.04656318575143814f, 
		-0.009190983138978481f, -0.0511416457593441f, -0.0514225997030735f, -0.056086715310811996f, 0.014236945658922195f, 
		0.0458826869726181f, 0.02298750914633274f, -0.05679275467991829f, -0.026210758835077286f, 0.05811640992760658f, 
		0.038844961673021317f, 0.010931971482932568f, -0.004217206034809351f, -0.05066702142357826f, -0.015381528064608574f, 
		0.048751913011074066f, 0.0511651486158371f, 0.0619959756731987f, 0.05980529263615608f, -0.036550022661685944f, 
		0.04107789322733879f, -0.06366598606109619f, -0.022449277341365814f, -0.0062353163957595825f, 0.0612017959356308f, 
		-0.052044447511434555f, -0.05252448841929436f, 0.013425846584141254f, 0.024111121892929077f, 0.05153637379407883f, 
		-0.0330716036260128f, -0.002159806899726391f, 0.045180872082710266f, 0.00024121587921399623f, 0.025749072432518005f, 
		-0.04469897598028183f, -0.034662939608097076f, -0.048085302114486694f, 0.04164591431617737f, -0.028581976890563965f, 
		-0.02512805350124836f, 0.008115139789879322f, -0.04850122332572937f, 0.006621608976274729f, 0.05436713993549347f, 
		0.05185395106673241f, -0.06265303492546082f, -0.02185225673019886f, 0.04691474139690399f, 0.04667122662067413f, 
		0.05309823527932167f, -0.026766302064061165f, 0.006352429743856192f, -0.010987774468958378f, 0.009278315119445324f, 
		-0.05586206167936325f, -0.0022494771983474493f, 0.01430339366197586f, -0.022138355299830437f, -0.02135717123746872f, 
		-0.055757973343133926f, -0.02484939806163311f, -0.03793928027153015f, -0.044684942811727524f, -0.016153031960129738f, 
		0.01686800643801689f, -0.008607620373368263f, 0.02210315130650997f, 0.056139785796403885f, -0.0381903350353241f, 
		0.04260050505399704f, 0.01024769525974989f, 0.035928670316934586f, 0.06304138898849487f, -0.03252655267715454f, 
		0.017006324604153633f, 0.014621661975979805f, 0.012022762559354305f, -0.0516677163541317f, 0.026667071506381035f, 
		-0.007761769462376833f, 0.056588657200336456f, -0.05862298980355263f, -0.003213518764823675f, 0.017011452466249466f, 
		0.030948001891374588f, -0.003196305362507701f, -0.04535866156220436f, 0.024527767673134804f, 0.007896412163972855f, 
		-0.056384872645139694f, 0.03759714588522911f, -0.0003135504375677556f, 0.06082853302359581f, 0.04415168985724449f, 
		0.024696385487914085f, -0.023242149502038956f, 0.03022543527185917f, -0.04004744440317154f, 0.010180619545280933f, 
		0.04575665295124054f, -0.017655206844210625f, 0.026132958009839058f, 0.06356249749660492f, -0.029883606359362602f, 
		0.046418458223342896f, -0.04198766499757767f, 0.033372242003679276f, 0.007997734472155571f, -0.04733646288514137f, 
		0.03976264223456383f, -0.04060244932770729f, -0.06396016478538513f, -0.05927417054772377f, -0.021718252450227737f, 
		-0.056628983467817307f, 0.01611397974193096f, -0.02621418982744217f, -0.023576989769935608f, 0.005846359301358461f, 
		0.033458296209573746f, 0.004820810165256262f, 0.02493828721344471f, -0.033790528774261475f, 0.016695860773324966f, 
		0.05752105265855789f, -0.008607640862464905f, -0.008372270502150059f, 0.06524091958999634f, 0.041022393852472305f, 
		0.03271963447332382f, -0.029910020530223846f, -0.033703435212373734f, 0.046441592276096344f, 0.016216980293393135f, 
		-0.07100585103034973f, -0.0040289112366735935f, -0.029965955764055252f, 0.06353164464235306f, 0.02092571370303631f, 
